{"learner":{"attributes":{},"feature_names":["account_length","area_code","international_plan","total_intl_minutes","total_intl_calls","voice_mail_plan","number_vmail_messages","total_day_minutes","total_day_calls","total_day_charge","total_eve_minutes","total_eve_calls","total_eve_charge","total_night_minutes","total_night_calls","total_night_charge","total_intl_minutes_2","total_intl_calls_2","total_intl_charge","number_customer_service_calls"],"feature_types":["int","int","int","float","int","int","int","float","int","float","float","int","float","float","int","float","float","int","float","int"],"gradient_booster":{"model":{"gbtree_model_param":{"num_parallel_tree":"1","num_trees":"300"},"iteration_indptr":[0,1,2,3,4,5,6,7,8,9,10,11,12,13,14,15,16,17,18,19,20,21,22,23,24,25,26,27,28,29,30,31,32,33,34,35,36,37,38,39,40,41,42,43,44,45,46,47,48,49,50,51,52,53,54,55,56,57,58,59,60,61,62,63,64,65,66,67,68,69,70,71,72,73,74,75,76,77,78,79,80,81,82,83,84,85,86,87,88,89,90,91,92,93,94,95,96,97,98,99,100,101,102,103,104,105,106,107,108,109,110,111,112,113,114,115,116,117,118,119,120,121,122,123,124,125,126,127,128,129,130,131,132,133,134,135,136,137,138,139,140,141,142,143,144,145,146,147,148,149,150,151,152,153,154,155,156,157,158,159,160,161,162,163,164,165,166,167,168,169,170,171,172,173,174,175,176,177,178,179,180,181,182,183,184,185,186,187,188,189,190,191,192,193,194,195,196,197,198,199,200,201,202,203,204,205,206,207,208,209,210,211,212,213,214,215,216,217,218,219,220,221,222,223,224,225,226,227,228,229,230,231,232,233,234,235,236,237,238,239,240,241,242,243,244,245,246,247,248,249,250,251,252,253,254,255,256,257,258,259,260,261,262,263,264,265,266,267,268,269,270,271,272,273,274,275,276,277,278,279,280,281,282,283,284,285,286,287,288,289,290,291,292,293,294,295,296,297,298,299,300],"tree_info":[0,0,0,0,0,0,0,0,0,0,0,0,0,0,0,0,0,0,0,0,0,0,0,0,0,0,0,0,0,0,0,0,0,0,0,0,0,0,0,0,0,0,0,0,0,0,0,0,0,0,0,0,0,0,0,0,0,0,0,0,0,0,0,0,0,0,0,0,0,0,0,0,0,0,0,0,0,0,0,0,0,0,0,0,0,0,0,0,0,0,0,0,0,0,0,0,0,0,0,0,0,0,0,0,0,0,0,0,0,0,0,0,0,0,0,0,0,0,0,0,0,0,0,0,0,0,0,0,0,0,0,0,0,0,0,0,0,0,0,0,0,0,0,0,0,0,0,0,0,0,0,0,0,0,0,0,0,0,0,0,0,0,0,0,0,0,0,0,0,0,0,0,0,0,0,0,0,0,0,0,0,0,0,0,0,0,0,0,0,0,0,0,0,0,0,0,0,0,0,0,0,0,0,0,0,0,0,0,0,0,0,0,0,0,0,0,0,0,0,0,0,0,0,0,0,0,0,0,0,0,0,0,0,0,0,0,0,0,0,0,0,0,0,0,0,0,0,0,0,0,0,0,0,0,0,0,0,0,0,0,0,0,0,0,0,0,0,0,0,0,0,0,0,0,0,0,0,0,0,0,0,0,0,0,0,0,0,0,0,0,0,0,0,0,0,0,0,0,0,0],"trees":[{"base_weights":[1.0362694E-2,-3.579188E-1,1.3764582E0,-6.893965E-1,1.3580247E0,1.6275303E0,-1.3540373E0,-9.342287E-1,8.5006195E-1,1.8146002E0,-9.4545454E-2,-3.2727274E-1,1.6870588E0,-3.7538463E-1,7.4285716E-1,-2.2735849E-1,2.1765416E-2,3.9483872E-1,2.9540917E-2,3.8531074E-1,2.5408804E-1,2.9397592E-1,-1.5102041E-1,2.1980198E-1,3.729231E-1,2.4000001E-1,-2.2222224E-1],"categories":[],"categories_nodes":[],"categories_segments":[],"categories_sizes":[],"default_left":[0,0,0,0,0,0,0,0,0,0,0,0,0,0,0,0,0,0,0,0,0,0,0,0,0,0,0],"id":0,"left_children":[1,3,5,7,9,11,13,15,17,19,21,-1,23,-1,25,-1,-1,-1,-1,-1,-1,-1,-1,-1,-1,-1,-1],"loss_changes":[1.1171401E3,9.9576215E2,3.254414E2,5.5353125E2,1.881911E2,8.674451E1,4.552585E1,2.675581E2,1.5899852E2,1.0695984E1,7.2155556E1,0E0,4.2325806E1,0E0,8.749207E0,0E0,0E0,0E0,0E0,0E0,0E0,0E0,0E0,0E0,0E0,0E0,0E0],"parents":[2147483647,0,0,1,1,2,2,3,3,4,4,5,5,6,6,7,7,8,8,9,9,10,10,12,12,14,14],"right_children":[2,4,6,8,10,12,14,16,18,20,22,-1,24,-1,26,-1,-1,-1,-1,-1,-1,-1,-1,-1,-1,-1,-1],"split_conditions":[2.468E2,4E0,1E0,1E0,1.74E2,1.278E2,1E0,2.216E2,3E0,1.6E2,1.545E2,-3.2727274E-1,1.885E2,-3.7538463E-1,3.4E1,-2.2735849E-1,2.1765416E-2,3.9483872E-1,2.9540917E-2,3.8531074E-1,2.5408804E-1,2.9397592E-1,-1.5102041E-1,2.1980198E-1,3.729231E-1,2.4000001E-1,-2.2222224E-1],"split_indices":[7,19,5,2,7,10,2,7,4,7,10,0,10,0,6,0,0,0,0,0,0,0,0,0,0,0,0],"split_type":[0,0,0,0,0,0,0,0,0,0,0,0,0,0,0,0,0,0,0,0,0,0,0,0,0,0,0],"sum_hessian":[2.2185E3,1.748E3,4.705E2,1.4655E3,2.825E2,4.3125E2,3.925E1,1.26475E3,2.0075E2,2.1475E2,6.775E1,7.25E0,4.24E2,3.15E1,7.75E0,1.059E3,2.0575E2,7.65E1,1.2425E2,1.76E2,3.875E1,1.975E1,4.8E1,1E2,3.24E2,6.5E0,1.25E0],"tree_param":{"num_deleted":"0","num_feature":"20","num_nodes":"27","size_leaf_vector":"1"}},{"base_weights":[1.917647E-2,-2.87767E-1,1.0422872E0,-5.708208E-1,1.1802412E0,1.2828189E0,-1.2530673E0,-7.549302E-1,6.2620914E-1,1.5263414E0,6.286663E-2,4.768636E-1,1.5111365E0,-3.264393E-1,5.643227E-1,-1.7605133E-1,-9.2515815E-3,1.3118028E-2,3.711691E-1,3.2774734E-1,2.3096938E-1,2.8299543E-1,-8.2911395E-2,-1.5985326E-1,2.3976345E-1,2.5457839E-2,3.112594E-1,2.0738709E-1,-2.2433932E-1],"categories":[],"categories_nodes":[],"categories_segments":[],"categories_sizes":[],"default_left":[0,0,0,0,0,0,0,0,0,0,0,0,0,0,0,0,0,0,0,0,0,0,0,0,0,0,0,0,0],"id":1,"left_children":[1,3,5,7,9,11,13,15,17,19,21,23,25,-1,27,-1,-1,-1,-1,-1,-1,-1,-1,-1,-1,-1,-1,-1,-1],"loss_changes":[6.905508E2,7.0354846E2,2.817777E2,3.1314883E2,1.057724E2,8.3892395E1,3.443447E1,1.09211426E2,1.306308E2,6.832947E0,4.305233E1,9.582235E1,2.2165955E1,0E0,8.444889E0,0E0,0E0,0E0,0E0,0E0,0E0,0E0,0E0,0E0,0E0,0E0,0E0,0E0,0E0],"parents":[2147483647,0,0,1,1,2,2,3,3,4,4,5,5,6,6,7,7,8,8,9,9,10,10,11,11,12,12,14,14],"right_children":[2,4,6,8,10,12,14,16,18,20,22,24,26,-1,28,-1,-1,-1,-1,-1,-1,-1,-1,-1,-1,-1,-1,-1,-1],"split_conditions":[2.423E2,4E0,1E0,1E0,1.74E2,1.855E2,1E0,2.21E2,1.2926077E1,2.162E2,1.409E2,2.661613E2,1.218E2,-3.264393E-1,1.03E2,-1.7605133E-1,-9.2515815E-3,1.3118028E-2,3.711691E-1,3.2774734E-1,2.3096938E-1,2.8299543E-1,-8.2911395E-2,-1.5985326E-1,2.3976345E-1,2.5457839E-2,3.112594E-1,2.0738709E-1,-2.2433932E-1],"split_indices":[7,19,5,2,7,10,2,7,3,10,10,7,13,0,11,0,0,0,0,0,0,0,0,0,0,0,0,0,0],"split_type":[0,0,0,0,0,0,0,0,0,0,0,0,0,0,0,0,0,0,0,0,0,0,0,0,0,0,0,0,0],"sum_hessian":[2.196991E3,1.6905328E3,5.06458E2,1.4177758E3,2.727571E2,4.5881918E2,4.7638817E1,1.2291028E3,1.8867302E2,2.0797275E2,6.4784355E1,1.01966995E2,3.568522E2,3.9500454E1,8.138365E0,1.0441976E3,1.849051E2,1.3031349E2,5.8359528E1,1.5704712E2,5.092563E1,1.639326E1,4.8391094E1,3.6804333E1,6.516266E1,1.1398153E1,3.4545404E2,6.6572366E0,1.4811283E0],"tree_param":{"num_deleted":"0","num_feature":"20","num_nodes":"29","size_leaf_vector":"1"}},{"base_weights":[3.6583953E-2,-2.2347063E-1,9.9621016E-1,-4.5028493E-1,9.927702E-1,1.1749576E0,-9.193583E-1,-5.961023E-1,5.233855E-1,1.2860479E0,-1.5119873E-1,-4.544461E-1,1.2631522E0,-1.3783953E0,4.6589944E-1,-1.4191268E-1,6.1783414E-2,3.2320666E-1,-2.2265816E-2,2.8881475E-1,1.623453E-1,-1.3330847E-1,1.8163794E-1,-3.6776695E-1,1.3913284E-1,-1.3698433E-1,2.6026058E-1,-9.574181E-2,-2.882058E-1,2.0970002E-1,-1.8651222E-1],"categories":[],"categories_nodes":[],"categories_segments":[],"categories_sizes":[],"default_left":[0,0,0,0,0,0,0,0,0,0,0,0,0,0,0,0,0,0,0,0,0,0,0,0,0,0,0,0,0,0,0],"id":2,"left_children":[1,3,5,7,9,11,13,15,17,19,21,23,25,27,29,-1,-1,-1,-1,-1,-1,-1,-1,-1,-1,-1,-1,-1,-1,-1,-1],"loss_changes":[5.318779E2,4.6306354E2,1.566749E2,2.0108258E2,8.873157E1,6.0365784E1,2.5661205E1,1.2655942E2,1.2828937E2,1.4579773E1,3.0492846E1,3.6466568E1,3.0245972E1,9.896965E-1,9.565385E0,0E0,0E0,0E0,0E0,0E0,0E0,0E0,0E0,0E0,0E0,0E0,0E0,0E0,0E0,0E0,0E0],"parents":[2147483647,0,0,1,1,2,2,3,3,4,4,5,5,6,6,7,7,8,8,9,9,10,10,11,11,12,12,13,13,14,14],"right_children":[2,4,6,8,10,12,14,16,18,20,22,24,26,28,30,-1,-1,-1,-1,-1,-1,-1,-1,-1,-1,-1,-1,-1,-1,-1,-1],"split_conditions":[2.468E2,4E0,1E0,1E0,1.83E2,1.5036148E2,1E0,2.73E2,3E0,2.125E2,1.17E2,1.976E2,1.123E2,6.8E0,2.718E2,-1.4191268E-1,6.1783414E-2,3.2320666E-1,-2.2265816E-2,2.8881475E-1,1.623453E-1,-1.3330847E-1,1.8163794E-1,-3.6776695E-1,1.3913284E-1,-1.3698433E-1,2.6026058E-1,-9.574181E-2,-2.882058E-1,2.0970002E-1,-1.8651222E-1],"split_indices":[7,19,5,2,7,10,2,10,4,10,14,13,13,3,7,0,0,0,0,0,0,0,0,0,0,0,0,0,0,0,0],"split_type":[0,0,0,0,0,0,0,0,0,0,0,0,0,0,0,0,0,0,0,0,0,0,0,0,0,0,0,0,0,0,0],"sum_hessian":[2.1294116E3,1.6759922E3,4.5341956E2,1.4130964E3,2.6289575E2,4.1507434E2,3.834521E1,1.2293728E3,1.8372365E2,2.0915164E2,5.374411E1,2.109984E1,3.939745E2,2.8804974E1,9.540236E0,1.0926097E3,1.3676309E2,6.694065E1,1.16783E2,1.5535031E2,5.380133E1,3.6405388E1,1.733872E1,9.302992E0,1.1796849E1,7.2417016E0,3.867328E2,2.4373438E0,2.636763E1,6.9112477E0,2.6289887E0],"tree_param":{"num_deleted":"0","num_feature":"20","num_nodes":"31","size_leaf_vector":"1"}},{"base_weights":[6.2218346E-3,-1.581629E-1,1.0370628E0,-3.238187E-1,8.5612166E-1,1.1681114E0,-5.204553E-1,2.6263386E-1,-5.2157754E-1,1.2147281E0,-3.4046574E-3,-4.5219412E-1,1.2498262E0,-1.1595141E0,8.000652E-1,-5.292373E-4,2.9115126E-1,-1.4288276E-1,6.7477524E-2,2.6480466E-1,1.7160593E-1,1.665319E-1,-1.0603734E-1,-3.187209E-1,2.2901021E-1,-1.925082E-1,2.5884753E-1,-2.5386012E-1,-8.0105774E-2,2.526051E-1,-8.09167E-2],"categories":[],"categories_nodes":[],"categories_segments":[],"categories_sizes":[],"default_left":[0,0,0,0,0,0,0,0,0,0,0,0,0,0,0,0,0,0,0,0,0,0,0,0,0,0,0,0,0,0,0],"id":3,"left_children":[1,3,5,7,9,11,13,15,17,19,21,23,25,27,29,-1,-1,-1,-1,-1,-1,-1,-1,-1,-1,-1,-1,-1,-1,-1,-1],"loss_changes":[3.4459305E2,2.9497012E2,5.769394E1,1.7507362E2,7.598619E1,3.4762726E1,1.9828873E1,1.2060822E2,1.8713913E2,5.6451416E0,3.2842194E1,2.5770706E1,2.5431E1,7.833023E-1,4.9146667E0,0E0,0E0,0E0,0E0,0E0,0E0,0E0,0E0,0E0,0E0,0E0,0E0,0E0,0E0,0E0,0E0],"parents":[2147483647,0,0,1,1,2,2,3,3,4,4,5,5,6,6,7,7,8,8,9,9,10,10,11,11,12,12,13,13,14,14],"right_children":[2,4,6,8,10,12,14,16,18,20,22,24,26,28,30,-1,-1,-1,-1,-1,-1,-1,-1,-1,-1,-1,-1,-1,-1,-1,-1],"split_conditions":[2.645E2,4E0,1E0,3E0,1.74E2,1.458E2,1E0,1E0,1.31219635E1,2.162E2,9.5E1,3.015E2,1.123E2,2.327E2,2.718E2,-5.292373E-4,2.9115126E-1,-1.4288276E-1,6.7477524E-2,2.6480466E-1,1.7160593E-1,1.665319E-1,-1.0603734E-1,-3.187209E-1,2.2901021E-1,-1.925082E-1,2.5884753E-1,-2.5386012E-1,-8.0105774E-2,2.526051E-1,-8.09167E-2],"split_indices":[7,19,5,4,7,10,2,2,3,10,11,7,13,10,7,0,0,0,0,0,0,0,0,0,0,0,0,0,0,0,0],"split_type":[0,0,0,0,0,0,0,0,0,0,0,0,0,0,0,0,0,0,0,0,0,0,0,0,0,0,0,0,0,0,0],"sum_hessian":[2.031575E3,1.7528936E3,2.786815E2,1.507384E3,2.4550945E2,2.572838E2,2.1397684E1,3.8004248E2,1.1273416E3,1.7294225E2,7.25672E1,1.2134653E1,2.4514914E2,1.4501627E1,6.896057E0,3.1172992E2,6.831256E1,9.207933E2,2.0654832E2,1.303042E2,4.2638042E1,2.782502E1,4.4742184E1,7.07853E0,5.056123E0,4.417487E0,2.4073166E2,1.2081661E1,2.4199665E0,4.946573E0,1.9494842E0],"tree_param":{"num_deleted":"0","num_feature":"20","num_nodes":"31","size_leaf_vector":"1"}},{"base_weights":[8.79182E-4,-2.8020158E-1,5.957395E-1,-4.669686E-1,7.7300817E-1,8.026277E-1,-9.8153436E-1,4.1041765E-2,-6.8407077E-1,9.990611E-1,-4.8832935E-1,2.613208E-1,1.2923447E0,-1.2136229E0,1.714109E-1,-1.22910775E-1,5.217073E-1,-1.3312812E-2,-1.7780629E-1,2.436959E-1,9.592963E-2,2.2326687E-1,-1.8286164E-1,-8.784874E-2,1.6578798E-1,2.0442466E-1,3.348717E-1,-2.8093863E-1,4.4083323E-2,-7.1602635E-2,2.61779E-1],"categories":[],"categories_nodes":[],"categories_segments":[],"categories_sizes":[],"default_left":[0,0,0,0,0,0,0,0,0,0,0,0,0,0,0,0,0,0,0,0,0,0,0,0,0,0,0,0,0,0,0],"id":4,"left_children":[1,3,5,7,9,11,13,15,17,19,21,23,25,27,29,-1,-1,-1,-1,-1,-1,-1,-1,-1,-1,-1,-1,-1,-1,-1,-1],"loss_changes":[3.2493542E2,2.5996216E2,2.0428084E2,1.23728516E2,5.7273933E1,1.4594788E2,1.9677948E1,5.6843866E2,9.9400024E1,1.8701263E1,2.2169662E1,1.0509294E2,2.817035E1,1.6939545E1,8.338785E0,0E0,0E0,0E0,0E0,0E0,0E0,0E0,0E0,0E0,0E0,0E0,0E0,0E0,0E0,0E0,0E0],"parents":[2147483647,0,0,1,1,2,2,3,3,4,4,5,5,6,6,7,7,8,8,9,9,10,10,11,11,12,12,13,13,14,14],"right_children":[2,4,6,8,10,12,14,16,18,20,22,24,26,28,30,-1,-1,-1,-1,-1,-1,-1,-1,-1,-1,-1,-1,-1,-1,-1,-1],"split_conditions":[2.223E2,4E0,1E0,4.15E2,1.83E2,2.171E2,1E0,4.09E2,3E0,2.125E2,1.341E2,2.572E2,2.591E2,1.25E2,1.31E1,-1.22910775E-1,5.217073E-1,-1.3312812E-2,-1.7780629E-1,2.436959E-1,9.592963E-2,2.2326687E-1,-1.8286164E-1,-8.784874E-2,1.6578798E-1,2.0442466E-1,3.348717E-1,-2.8093863E-1,4.4083323E-2,-7.1602635E-2,2.61779E-1],"split_indices":[7,19,5,1,7,10,2,1,4,10,10,7,10,11,3,0,0,0,0,0,0,0,0,0,0,0,0,0,0,0,0],"split_type":[0,0,0,0,0,0,0,0,0,0,0,0,0,0,0,0,0,0,0,0,0,0,0,0,0,0,0,0,0,0,0],"sum_hessian":[1.9413511E3,1.3187501E3,6.22601E2,1.120591E3,1.9815915E2,5.5083954E2,7.17615E1,3.3575305E2,7.848378E2,1.6821935E2,2.9939806E1,2.6236685E2,2.8847266E2,5.969269E1,1.2068804E1,2.6806482E2,6.768824E1,1.9591345E2,5.889244E2,1.1731533E2,5.090402E1,5.9406657E0,2.399914E1,1.17532524E2,1.4483434E2,1.7111111E2,1.1736153E2,5.269246E1,7.0002313E0,8.703265E0,3.365539E0],"tree_param":{"num_deleted":"0","num_feature":"20","num_nodes":"31","size_leaf_vector":"1"}},{"base_weights":[-9.028285E-3,-2.3724477E-1,5.2048177E-1,-3.9206922E-1,7.0765775E-1,-6.1949167E-2,9.101658E-1,-5.30979E-1,4.6556774E-1,1.1465926E0,1.8325943E-2,-4.4020578E-1,8.07645E-1,1.1014665E0,-8.711415E-1,-2.202064E-2,-1.4339858E-1,-1.4707835E-2,3.3265162E-1,2.419331E-1,1.4274433E-1,1.2587358E-1,-2.976433E-1,-1.5219976E-1,9.5273055E-2,1.9309033E-1,-1.6207676E-1,7.730946E-2,2.4128942E-1,-2.564955E-1,1.01286665E-1],"categories":[],"categories_nodes":[],"categories_segments":[],"categories_sizes":[],"default_left":[0,0,0,0,0,0,0,0,0,0,0,0,0,0,0,0,0,0,0,0,0,0,0,0,0,0,0,0,0,0,0],"id":5,"left_children":[1,3,5,7,9,11,13,15,17,19,21,23,25,27,29,-1,-1,-1,-1,-1,-1,-1,-1,-1,-1,-1,-1,-1,-1,-1,-1],"loss_changes":[2.250125E2,1.9063264E2,1.27342575E2,1.3351534E2,5.551384E1,7.46108E1,1.15481476E2,7.532712E1,1.01146706E2,2.1978302E0,6.760431E1,4.6808926E1,1.8345142E1,2.2343842E1,1.9433937E1,0E0,0E0,0E0,0E0,0E0,0E0,0E0,0E0,0E0,0E0,0E0,0E0,0E0,0E0,0E0,0E0],"parents":[2147483647,0,0,1,1,2,2,3,3,4,4,5,5,6,6,7,7,8,8,9,9,10,10,11,11,12,12,13,13,14,14],"right_children":[2,4,6,8,10,12,14,16,18,20,22,24,26,28,30,-1,-1,-1,-1,-1,-1,-1,-1,-1,-1,-1,-1,-1,-1,-1,-1],"split_conditions":[2.235E2,4E0,2.039E2,1E0,1.6E2,2.7563345E2,1E0,4.15E2,1.31E1,1E0,2.125E2,2.553E2,1E0,1.5786617E2,1E0,-2.202064E-2,-1.4339858E-1,-1.4707835E-2,3.3265162E-1,2.419331E-1,1.4274433E-1,1.2587358E-1,-2.976433E-1,-1.5219976E-1,9.5273055E-2,1.9309033E-1,-1.6207676E-1,7.730946E-2,2.4128942E-1,-2.564955E-1,1.01286665E-1],"split_indices":[7,19,10,2,7,7,5,1,3,5,10,13,5,13,2,0,0,0,0,0,0,0,0,0,0,0,0,0,0,0,0],"split_type":[0,0,0,0,0,0,0,0,0,0,0,0,0,0,0,0,0,0,0,0,0,0,0,0,0,0,0,0,0,0,0],"sum_hessian":[1.860003E3,1.3001823E3,5.5982086E2,1.1176395E3,1.8254274E2,2.2474811E2,3.3507272E2,9.621783E2,1.5546124E2,1.11122E2,7.142074E1,1.569651E2,6.7783E1,3.029225E2,3.2150234E1,2.953991E2,6.667792E2,1.0785287E2,4.7608368E1,9.542351E1,1.5698495E1,5.1226078E1,2.0194656E1,1.1639683E2,4.056828E1,6.2127052E1,5.6559467E0,3.9385933E1,2.6353656E2,2.4810879E1,7.3393555E0],"tree_param":{"num_deleted":"0","num_feature":"20","num_nodes":"31","size_leaf_vector":"1"}},{"base_weights":[-1.0512082E-3,-1.1191251E-1,8.2877064E-1,1.963926E-1,-3.791267E-1,9.277079E-1,-4.045918E-1,3.5808995E-1,-4.4171304E-1,-5.16871E-1,2.4853618E-1,-5.588619E-1,1.0151048E0,-9.2089766E-1,6.781979E-1,4.3120578E-2,4.4104367E-1,-1.338853E-1,7.03222E-2,-1.2831554E-1,7.8425154E-2,-3.8980436E-2,2.993734E-1,-2.6117674E-1,1.992669E-1,-1.5480933E-1,2.1559553E-1,-2.1387775E-1,-4.1536473E-2,-8.7174915E-2,2.1096626E-1],"categories":[],"categories_nodes":[],"categories_segments":[],"categories_sizes":[],"default_left":[0,0,0,0,0,0,0,0,0,0,0,0,0,0,0,0,0,0,0,0,0,0,0,0,0,0,0,0,0,0,0],"id":6,"left_children":[1,3,5,7,9,11,13,15,17,19,21,23,25,27,29,-1,-1,-1,-1,-1,-1,-1,-1,-1,-1,-1,-1,-1,-1,-1,-1],"loss_changes":[1.6114314E2,1.2737387E2,2.556572E1,7.4251625E1,7.1724014E1,2.543544E1,9.584074E0,1.5045776E2,2.6542952E1,7.726732E1,8.3160995E1,1.4397907E1,2.121019E1,9.720993E-1,2.8726082E0,0E0,0E0,0E0,0E0,0E0,0E0,0E0,0E0,0E0,0E0,0E0,0E0,0E0,0E0,0E0,0E0],"parents":[2147483647,0,0,1,1,2,2,3,3,4,4,5,5,6,6,7,7,8,8,9,9,10,10,11,11,12,12,13,13,14,14],"right_children":[2,4,6,8,10,12,14,16,18,20,22,24,26,28,30,-1,-1,-1,-1,-1,-1,-1,-1,-1,-1,-1,-1,-1,-1,-1,-1],"split_conditions":[2.637E2,4E0,1E0,1E0,1.31219635E1,1.382E2,1E0,1E0,3E0,4E0,1E0,3.114615E2,1.218E2,2.327E2,2.7E1,4.3120578E-2,4.4104367E-1,-1.338853E-1,7.03222E-2,-1.2831554E-1,7.8425154E-2,-3.8980436E-2,2.993734E-1,-2.6117674E-1,1.992669E-1,-1.5480933E-1,2.1559553E-1,-2.1387775E-1,-4.1536473E-2,-8.7174915E-2,2.1096626E-1],"split_indices":[7,4,5,5,3,10,2,6,19,19,2,7,13,10,6,0,0,0,0,0,0,0,0,0,0,0,0,0,0,0,0],"split_type":[0,0,0,0,0,0,0,0,0,0,0,0,0,0,0,0,0,0,0,0,0,0,0,0,0,0,0,0,0,0,0],"sum_hessian":[1.7496405E3,1.5442052E3,2.0543529E2,7.1709906E2,8.271061E2,1.9040897E2,1.5026317E1,5.7247217E2,1.4462688E2,6.784031E2,1.4870299E2,1.0273197E1,1.8013577E2,1.0275954E1,4.750362E0,5.325111E2,3.9961067E1,1.124933E2,3.2133575E1,5.968188E2,8.158432E1,1.1034836E2,3.835463E1,7.0480514E0,3.225146E0,5.7312865E0,1.7440448E2,8.091845E0,2.1841097E0,1.1604593E0,3.5899029E0],"tree_param":{"num_deleted":"0","num_feature":"20","num_nodes":"31","size_leaf_vector":"1"}},{"base_weights":[-2.8181113E-3,1.3750504E-1,-5.410472E-1,4.0818885E-2,1.9223454E0,-7.307408E-2,-7.4289274E-1,-1.9075178E-1,5.285317E-1,2.0734425E0,2.6383066E-1,-4.555916E-1,1.8505856E0,-8.539806E-1,-1.097991E-2,-6.518859E-2,1.3021319E-1,1.4986314E-2,2.1338554E-1,4.489332E-1,2.1730152E-1,-1.3639416E-1,1.8204767E-1,3.957613E-1,1.8303625E-1,-2.5622058E-1,-1.3394699E-1,-1.21283606E-1,2.7440378E-1],"categories":[],"categories_nodes":[],"categories_segments":[],"categories_sizes":[],"default_left":[0,0,0,0,0,0,0,0,0,0,0,0,0,0,0,0,0,0,0,0,0,0,0,0,0,0,0,0,0],"id":7,"left_children":[1,3,5,7,9,11,13,15,17,19,-1,21,23,25,27,-1,-1,-1,-1,-1,-1,-1,-1,-1,-1,-1,-1,-1,-1],"loss_changes":[1.2857945E2,2.329601E2,3.3200943E1,1.4489366E2,3.5873718E0,7.972511E1,1.9980804E1,9.922626E1,1.0078419E2,6.6401978E0,0E0,2.8517082E1,3.453598E-1,1.5939529E1,2.8346355E1,0E0,0E0,0E0,0E0,0E0,0E0,0E0,0E0,0E0,0E0,0E0,0E0,0E0,0E0],"parents":[2147483647,0,0,1,1,2,2,3,3,4,4,5,5,6,6,7,7,8,8,9,9,11,11,12,12,13,13,14,14],"right_children":[2,4,6,8,10,12,14,16,18,20,-1,22,24,26,28,-1,-1,-1,-1,-1,-1,-1,-1,-1,-1,-1,-1,-1,-1],"split_conditions":[1E0,1E0,4.15E2,2.251E2,1E0,4.09E2,1E0,4E0,2.236E2,4E0,2.6383066E-1,4E1,4E0,9.1E1,1.31E1,-6.518859E-2,1.3021319E-1,1.4986314E-2,2.1338554E-1,4.489332E-1,2.1730152E-1,-1.3639416E-1,1.8204767E-1,3.957613E-1,1.8303625E-1,-2.5622058E-1,-1.3394699E-1,-1.21283606E-1,2.7440378E-1],"split_indices":[5,6,1,7,2,1,2,19,10,19,0,6,19,11,3,0,0,0,0,0,0,0,0,0,0,0,0,0,0],"split_type":[0,0,0,0,0,0,0,0,0,0,0,0,0,0,0,0,0,0,0,0,0,0,0,0,0,0,0,0,0],"sum_hessian":[1.7004678E3,1.3494053E3,3.5106256E2,1.2810336E3,6.837169E1,1.0620089E2,2.4486166E2,8.690224E2,4.1201117E2,5.272648E1,1.564521E1,8.92223E1,1.6978588E1,2.124498E2,3.2411865E1,7.493016E2,1.197208E2,2.2423323E2,1.8777795E2,4.3845356E1,8.881124E0,7.696624E1,1.2256063E1,1.3950817E1,3.02777E0,6.2231102E1,1.502187E2,2.3049583E1,9.362279E0],"tree_param":{"num_deleted":"0","num_feature":"20","num_nodes":"29","size_leaf_vector":"1"}},{"base_weights":[1.68473E-2,-6.661006E-2,7.485667E-1,-4.8956692E-1,5.859941E-2,-2.3989525E-1,8.0708176E-1,1.091712E-1,-7.9888517E-1,-4.116318E-1,1.865288E-1,9.155213E-1,-3.4165347E-1,-5.40326E-2,3.5259864E-1,-2.001299E-1,-5.8490854E-2,-1.21249594E-1,1.1807921E-1,3.5126448E-1,-3.4457583E-3,-2.6994437E-1,1.8862286E-1,-2.0494592E-1,1.3422643E-1],"categories":[],"categories_nodes":[],"categories_segments":[],"categories_sizes":[],"default_left":[0,0,0,0,0,0,0,0,0,0,0,0,0,0,0,0,0,0,0,0,0,0,0,0,0],"id":8,"left_children":[1,3,5,7,9,-1,11,13,15,17,19,21,23,-1,-1,-1,-1,-1,-1,-1,-1,-1,-1,-1,-1],"loss_changes":[9.964197E1,7.7602325E1,2.0009842E1,6.2072258E1,6.812072E1,0E0,2.0589325E1,7.2551575E1,2.2268936E1,4.7594482E1,2.8466873E2,1.0586494E1,1.0904779E1,0E0,0E0,0E0,0E0,0E0,0E0,0E0,0E0,0E0,0E0,0E0,0E0],"parents":[2147483647,0,0,1,1,2,2,3,3,4,4,6,6,7,7,8,8,9,9,10,10,11,11,12,12],"right_children":[2,4,6,8,10,-1,12,14,16,18,20,22,24,-1,-1,-1,-1,-1,-1,-1,-1,-1,-1,-1,-1],"split_conditions":[4.515E1,2.3236616E0,1.278E2,4.15E2,4.09E2,-2.3989525E-1,1E0,4.09E2,2.338E2,1E0,4.15E2,9.86E1,1E0,-5.40326E-2,3.5259864E-1,-2.001299E-1,-5.8490854E-2,-1.21249594E-1,1.1807921E-1,3.5126448E-1,-3.4457583E-3,-2.6994437E-1,1.8862286E-1,-2.0494592E-1,1.3422643E-1],"split_indices":[9,18,10,1,1,0,5,1,13,2,1,13,2,0,0,0,0,0,0,0,0,0,0,0,0],"split_type":[0,0,0,0,0,0,0,0,0,0,0,0,0,0,0,0,0,0,0,0,0,0,0,0,0],"sum_hessian":[1.6298564E3,1.4638086E3,1.6604793E2,3.3369128E2,1.1301173E3,4.2736573E0,1.6177426E2,1.1388825E2,2.1980304E2,2.4122537E2,8.888919E2,1.4800568E2,1.3768585E1,9.3320206E1,2.0568047E1,1.5648346E2,6.3319576E1,2.0232445E2,3.8900936E1,1.0124654E2,7.876454E2,1.2045281E0,1.4680115E2,8.215693E0,5.5528913E0],"tree_param":{"num_deleted":"0","num_feature":"20","num_nodes":"25","size_leaf_vector":"1"}},{"base_weights":[4.296296E-3,1.1098747E-1,-4.243883E-1,2.637448E-2,1.6667023E0,-6.870056E-1,-1.130498E-1,-1.289553E-1,4.4996375E-1,1.7383977E0,2.1471505E-1,-8.8289964E-1,1.6674249E-1,-6.0744053E-1,1.427848E-1,-4.8510917E-2,1.2260407E-1,-5.975901E-2,1.5847532E-1,3.6296695E-1,2.1743517E-1,-1.2845701E-1,-2.4537265E-1,2.5625244E-1,-5.950625E-2,-1.4890596E-1,3.969013E-1,6.2044103E-2,-2.2679697E-1],"categories":[],"categories_nodes":[],"categories_segments":[],"categories_sizes":[],"default_left":[0,0,0,0,0,0,0,0,0,0,0,0,0,0,0,0,0,0,0,0,0,0,0,0,0,0,0,0,0],"id":9,"left_children":[1,3,5,7,9,11,13,15,17,19,-1,21,23,25,27,-1,-1,-1,-1,-1,-1,-1,-1,-1,-1,-1,-1,-1,-1],"loss_changes":[7.281101E1,1.6774602E2,2.5861706E1,7.966716E1,9.290619E-1,2.889547E1,1.8598349E1,7.483425E1,8.35262E1,8.658447E-1,0E0,1.0796478E1,1.7416231E1,1.9279362E1,2.1143229E1,0E0,0E0,0E0,0E0,0E0,0E0,0E0,0E0,0E0,0E0,0E0,0E0,0E0,0E0],"parents":[2147483647,0,0,1,1,2,2,3,3,4,4,5,5,6,6,7,7,8,8,9,9,11,11,12,12,13,13,14,14],"right_children":[2,4,6,8,10,12,14,16,18,20,-1,22,24,26,28,-1,-1,-1,-1,-1,-1,-1,-1,-1,-1,-1,-1,-1,-1],"split_conditions":[1E0,1E0,2E0,2.313E2,4E0,1E0,2.8E1,4E0,1.896E2,2.3378763E2,2.1471505E-1,9.65E0,3E0,1.57E1,2.271E2,-4.8510917E-2,1.2260407E-1,-5.975901E-2,1.5847532E-1,3.6296695E-1,2.1743517E-1,-1.2845701E-1,-2.4537265E-1,2.5625244E-1,-5.950625E-2,-1.4890596E-1,3.969013E-1,6.2044103E-2,-2.2679697E-1],"split_indices":[5,6,19,7,19,2,6,19,10,7,0,15,4,3,7,0,0,0,0,0,0,0,0,0,0,0,0,0,0],"split_type":[0,0,0,0,0,0,0,0,0,0,0,0,0,0,0,0,0,0,0,0,0,0,0,0,0,0,0,0,0],"sum_hessian":[1.5899249E3,1.2736736E3,3.1625125E2,1.2089382E3,6.473538E1,1.7089386E2,1.453574E2,8.8507697E2,3.2386133E2,5.603155E1,8.703834E0,1.3897227E2,3.1921583E1,4.9099712E1,9.625769E1,7.681442E2,1.16932686E2,1.016686E2,2.2219272E2,4.8546585E1,7.4849644E0,8.345788E1,5.5514397E1,8.869662E0,2.305192E1,4.7310207E1,1.7895057E0,8.57672E1,1.0490493E1],"tree_param":{"num_deleted":"0","num_feature":"20","num_nodes":"29","size_leaf_vector":"1"}},{"base_weights":[-3.3668084E-3,-6.8720125E-2,6.193047E-1,4.1622814E-2,-4.6216348E-1,-1.5052406E-1,8.503547E-1,-8.686334E-2,4.077494E-1,-7.1298933E-1,1.0414799E-1,-1.3462199E0,5.9391475E-1,9.689465E-1,-2.794147E-1,-5.1719453E-2,6.5269046E-2,1.7706706E-1,-4.4171135E-3,-1.6705257E-1,2.6186196E-2,-3.3937305E-2,2.4149036E-1,-4.3371406E-1,1.8155123E-1,-1.5251198E-1,1.5321746E-1,-2.5819346E-1,2.0194994E-1,1.2256074E-1,-2.01787E-1],"categories":[],"categories_nodes":[],"categories_segments":[],"categories_sizes":[],"default_left":[0,0,0,0,0,0,0,0,0,0,0,0,0,0,0,0,0,0,0,0,0,0,0,0,0,0,0,0,0,0,0],"id":10,"left_children":[1,3,5,7,9,11,13,15,17,19,21,23,25,27,29,-1,-1,-1,-1,-1,-1,-1,-1,-1,-1,-1,-1,-1,-1,-1,-1],"loss_changes":[6.168259E1,5.9572147E1,2.5737507E1,5.0474995E1,4.2763794E1,3.114105E1,1.5128319E1,5.6464527E1,5.7233486E1,2.1615059E1,2.8339622E1,2.677919E1,5.652517E0,1.0578384E1,7.9803615E0,0E0,0E0,0E0,0E0,0E0,0E0,0E0,0E0,0E0,0E0,0E0,0E0,0E0,0E0,0E0,0E0],"parents":[2147483647,0,0,1,1,2,2,3,3,4,4,5,5,6,6,7,7,8,8,9,9,10,10,11,11,12,12,13,13,14,14],"right_children":[2,4,6,8,10,12,14,16,18,20,22,24,26,28,30,-1,-1,-1,-1,-1,-1,-1,-1,-1,-1,-1,-1,-1,-1,-1,-1],"split_conditions":[2.637E2,6E0,1.751E2,3E0,1.21451235E1,2.0011069E2,1E0,2.16E2,1.653E2,2.718E2,1E0,3.015E2,1.239E2,9.86E1,2.718E2,-5.1719453E-2,6.5269046E-2,1.7706706E-1,-4.4171135E-3,-1.6705257E-1,2.6186196E-2,-3.3937305E-2,2.4149036E-1,-4.3371406E-1,1.8155123E-1,-1.5251198E-1,1.5321746E-1,-2.5819346E-1,2.0194994E-1,1.2256074E-1,-2.01787E-1],"split_indices":[7,4,10,19,3,13,5,7,7,10,2,7,10,13,7,0,0,0,0,0,0,0,0,0,0,0,0,0,0,0,0],"split_type":[0,0,0,0,0,0,0,0,0,0,0,0,0,0,0,0,0,0,0,0,0,0,0,0,0,0,0,0,0,0,0],"sum_hessian":[1.5137336E3,1.370754E3,1.4297968E2,1.0712198E3,2.9953415E2,3.3086895E1,1.0989277E2,7.935124E2,2.7770746E2,2.0741061E2,9.2123535E1,1.2385424E1,2.0701473E1,9.9582E1,1.031077E1,5.6080853E2,2.3270386E2,1.3104492E2,1.4666255E2,1.811714E2,2.6239214E1,7.4483345E1,1.7640194E1,9.102367E0,3.2830555E0,1.9454049E0,1.8756067E1,1.2227032E0,9.83593E1,4.71015E0,5.6006203E0],"tree_param":{"num_deleted":"0","num_feature":"20","num_nodes":"31","size_leaf_vector":"1"}},{"base_weights":[-1.0003131E-2,3.3275273E-1,-1.3242431E-1,1.1708651E-1,2.7012146E-1,-2.0686711E-1,4.936356E-1,2.6226225E-1,-6.236448E-1,-3.1588987E-1,2.727994E-1,-6.2172407E-1,6.668472E-1,1.593702E-2,1.3884614E-1,3.2207996E-2,-2.236828E-1,-8.149071E-2,6.0489435E-2,-5.276798E-3,2.707959E-1,-9.7776335E-3,-4.3275094E-1,-1.8064736E-1,1.6412748E-1],"categories":[],"categories_nodes":[],"categories_segments":[],"categories_sizes":[],"default_left":[0,0,0,0,0,0,0,0,0,0,0,0,0,0,0,0,0,0,0,0,0,0,0,0,0],"id":11,"left_children":[1,3,5,7,-1,9,11,13,15,17,19,21,23,-1,-1,-1,-1,-1,-1,-1,-1,-1,-1,-1,-1],"loss_changes":[6.214682E1,8.540622E1,5.0960136E1,3.4868786E1,0E0,5.112459E1,2.287566E1,2.1282139E1,2.0827637E1,4.517328E1,5.8675808E1,1.4156149E1,2.5157173E1,0E0,0E0,0E0,0E0,0E0,0E0,0E0,0E0,0E0,0E0,0E0,0E0],"parents":[2147483647,0,0,1,1,2,2,3,3,5,5,6,6,7,7,8,8,9,9,10,10,11,11,12,12],"right_children":[2,4,6,8,-1,10,12,14,16,18,20,22,24,-1,-1,-1,-1,-1,-1,-1,-1,-1,-1,-1,-1],"split_conditions":[3E0,1E0,4.3722797E1,1E0,2.7012146E-1,1.31219635E1,1.517E2,5.1E2,4.15E2,4E0,1E0,1.15E2,1.555E2,1.593702E-2,1.3884614E-1,3.2207996E-2,-2.236828E-1,-8.149071E-2,6.0489435E-2,-5.276798E-3,2.707959E-1,-9.7776335E-3,-4.3275094E-1,-1.8064736E-1,1.6412748E-1],"split_indices":[4,2,9,5,0,3,13,1,1,19,2,14,10,0,0,0,0,0,0,0,0,0,0,0,0],"split_type":[0,0,0,0,0,0,0,0,0,0,0,0,0,0,0,0,0,0,0,0,0,0,0,0,0],"sum_hessian":[1.4790262E3,3.8878488E2,1.0902413E3,3.2173062E2,6.705426E1,9.7497925E2,1.1526213E2,2.6954794E2,5.218269E1,7.9469543E2,1.8028381E2,1.5145633E1,1.0011649E2,1.9029973E2,7.9248215E1,2.044006E1,3.1742628E1,6.9249194E2,1.0220351E2,1.4197281E2,3.8311016E1,1.1795519E1,3.350114E0,8.496844E0,9.161965E1],"tree_param":{"num_deleted":"0","num_feature":"20","num_nodes":"25","size_leaf_vector":"1"}},{"base_weights":[3.498018E-2,3.1022942E-1,-8.917414E-2,-1.6946705E-1,1.5560658E0,-5.9598434E-1,1.0905563E-2,-7.317049E-2,-7.8311205E-1,1.6654714E0,2.1683979E-1,-6.709528E-1,1.6194172E0,2.3764454E-1,-1.95472E-1,-6.605727E-2,9.458365E-2,-1.921508E-1,7.21825E-2,3.463975E-1,2.1716037E-1,-1.6032319E-1,6.9272555E-2,-3.4984495E-2,4.194911E-1,-3.9342297E-3,9.261855E-2,-8.420764E-2,4.1212276E-2],"categories":[],"categories_nodes":[],"categories_segments":[],"categories_sizes":[],"default_left":[0,0,0,0,0,0,0,0,0,0,0,0,0,0,0,0,0,0,0,0,0,0,0,0,0,0,0,0,0],"id":12,"left_children":[1,3,5,7,9,11,13,15,17,19,-1,21,23,25,27,-1,-1,-1,-1,-1,-1,-1,-1,-1,-1,-1,-1,-1,-1],"loss_changes":[4.8670815E1,2.6482736E2,4.9801186E1,1.888322E1,4.5527344E0,2.797754E1,3.8455685E1,3.921118E1,9.161341E0,1.9026184E0,0E0,2.118927E1,5.164032E0,2.2724415E1,3.9055664E1,0E0,0E0,0E0,0E0,0E0,0E0,0E0,0E0,0E0,0E0,0E0,0E0,0E0,0E0],"parents":[2147483647,0,0,1,1,2,2,3,3,4,4,5,5,6,6,7,7,8,8,9,9,11,11,12,12,13,13,14,14],"right_children":[2,4,6,8,10,12,14,16,18,20,-1,22,24,26,28,-1,-1,-1,-1,-1,-1,-1,-1,-1,-1,-1,-1,-1,-1],"split_conditions":[4.15E2,4.09E2,2.1846538E0,1.45E2,2.4409412E2,3.287E2,4E0,1.16E2,2.4409412E2,4E0,2.1683979E-1,4E0,2.338E2,9.7E1,2.127E2,-6.605727E-2,9.458365E-2,-1.921508E-1,7.21825E-2,3.463975E-1,2.1716037E-1,-1.6032319E-1,6.9272555E-2,-3.4984495E-2,4.194911E-1,-3.9342297E-3,9.261855E-2,-8.420764E-2,4.1212276E-2],"split_indices":[1,1,18,0,7,10,4,0,7,19,0,19,13,0,7,0,0,0,0,0,0,0,0,0,0,0,0,0,0],"split_type":[0,0,0,0,0,0,0,0,0,0,0,0,0,0,0,0,0,0,0,0,0,0,0,0,0,0,0,0,0],"sum_hessian":[1.4224221E3,4.4169302E2,9.8072906E2,3.1952658E2,1.2216645E2,1.6091084E2,8.1981824E2,2.7715338E2,4.2373196E1,9.711914E1,2.5047314E1,1.5631822E2,4.5926137E0,3.9056653E2,4.292517E2,1.8870178E2,8.845159E1,3.6816586E1,5.5566106E0,8.533878E1,1.1780355E1,1.3871396E2,1.7604267E1,1.0995362E0,3.4930778E0,1.8281877E2,2.0774776E2,2.7481982E2,1.544319E2],"tree_param":{"num_deleted":"0","num_feature":"20","num_nodes":"29","size_leaf_vector":"1"}},{"base_weights":[7.125797E-3,9.502299E-2,-3.493986E-1,2.2936331E-2,2.961054E-1,-6.2663877E-1,-4.8832424E-2,-1.2242722E-1,3.6162543E-1,-3.5600805E-1,-1.1007986E0,1.1169523E-1,-1.0327055E0,-3.5303276E-2,1.6866808E-1,3.450271E-2,2.3670101E-1,-1.21497214E-1,9.73205E-2,-2.3124364E-1,-9.266664E-2,-1.0781228E-2,2.0849314E-1,-2.2249131E-1,-4.8649214E-2],"categories":[],"categories_nodes":[],"categories_segments":[],"categories_sizes":[],"default_left":[0,0,0,0,0,0,0,0,0,0,0,0,0,0,0,0,0,0,0,0,0,0,0,0,0],"id":13,"left_children":[1,3,5,7,-1,9,11,13,15,17,19,21,23,-1,-1,-1,-1,-1,-1,-1,-1,-1,-1,-1,-1],"loss_changes":[4.383795E1,1.1204344E2,2.3024586E1,5.2609394E1,0E0,1.8065788E1,2.1253588E1,3.921193E1,4.966973E1,2.0012856E1,1.29385E0,1.7930946E1,9.175453E-1,0E0,0E0,0E0,0E0,0E0,0E0,0E0,0E0,0E0,0E0,0E0,0E0],"parents":[2147483647,0,0,1,1,2,2,3,3,5,5,6,6,7,7,8,8,9,9,10,10,11,11,12,12],"right_children":[2,4,6,8,-1,10,12,14,16,18,20,22,24,-1,-1,-1,-1,-1,-1,-1,-1,-1,-1,-1,-1],"split_conditions":[1E0,1E0,2E0,1.0375255E1,2.961054E-1,2.166E2,2.271E2,4.715504E1,2.5765894E2,1E0,1.27E2,2.588E2,1.3654808E1,-3.5303276E-2,1.6866808E-1,3.450271E-2,2.3670101E-1,-1.21497214E-1,9.73205E-2,-2.3124364E-1,-9.266664E-2,-1.0781228E-2,2.0849314E-1,-2.2249131E-1,-4.8649214E-2],"split_indices":[5,6,19,15,0,13,7,9,10,2,14,13,3,0,0,0,0,0,0,0,0,0,0,0,0],"split_type":[0,0,0,0,0,0,0,0,0,0,0,0,0,0,0,0,0,0,0,0,0,0,0,0,0],"sum_hessian":[1.3968381E3,1.1211615E3,2.7567664E2,1.0666796E3,5.448193E1,1.4283853E2,1.3283812E2,7.467969E2,3.198827E2,9.205066E1,5.0787865E1,1.1496675E2,1.7871372E1,7.079636E2,3.8833252E1,2.6103033E2,5.885235E1,7.1107574E1,2.0943089E1,4.5976974E1,4.8108916E0,9.84014E1,1.6565351E1,1.5860058E1,2.0113149E0],"tree_param":{"num_deleted":"0","num_feature":"20","num_nodes":"25","size_leaf_vector":"1"}},{"base_weights":[-6.420536E-3,-1.701714E-1,1.2826644E-1,-2.4593759E-1,3.5336563E-1,3.8924497E-2,6.448728E-1,-7.755113E-1,-1.0703678E-1,9.147622E-1,-5.375672E-1,-7.5363714E-1,9.393368E-2,2.431545E-1,2.5515833E-1,-5.870802E-2,-2.0168173E-1,-7.794139E-2,4.2997226E-2,2.1673198E-1,-5.7982225E-2,1.9599181E-1,-1.649407E-1,-2.7173087E-1,-6.7380376E-2,-3.8512063E-4,1.16270065E-1,2.455966E-1,-7.546547E-2],"categories":[],"categories_nodes":[],"categories_segments":[],"categories_sizes":[],"default_left":[0,0,0,0,0,0,0,0,0,0,0,0,0,0,0,0,0,0,0,0,0,0,0,0,0,0,0,0,0],"id":14,"left_children":[1,3,5,7,9,11,13,15,17,19,21,23,25,27,-1,-1,-1,-1,-1,-1,-1,-1,-1,-1,-1,-1,-1,-1,-1],"loss_changes":[3.017025E1,2.4574854E1,3.461908E1,3.963031E1,3.97337E1,2.8017408E1,2.7723324E1,1.2278473E1,3.912197E1,1.018232E1,1.4297555E1,1.0059553E1,2.8048765E1,4.2513382E1,0E0,0E0,0E0,0E0,0E0,0E0,0E0,0E0,0E0,0E0,0E0,0E0,0E0,0E0,0E0],"parents":[2147483647,0,0,1,1,2,2,3,3,4,4,5,5,6,6,7,7,8,8,9,9,10,10,11,11,12,12,13,13],"right_children":[2,4,6,8,10,12,14,16,18,20,22,24,26,28,-1,-1,-1,-1,-1,-1,-1,-1,-1,-1,-1,-1,-1,-1,-1],"split_conditions":[1.0215432E1,4E0,1E0,1.672E2,1.758E2,5.76E0,1.31E1,3E0,1.954E2,2.317E2,1.47E2,1.965E2,2.423E2,3E0,2.5515833E-1,-5.870802E-2,-2.0168173E-1,-7.794139E-2,4.2997226E-2,2.1673198E-1,-5.7982225E-2,1.9599181E-1,-1.649407E-1,-2.7173087E-1,-6.7380376E-2,-3.8512063E-4,1.16270065E-1,2.455966E-1,-7.546547E-2],"split_indices":[3,19,2,13,7,15,3,4,7,10,10,10,7,4,0,0,0,0,0,0,0,0,0,0,0,0,0,0,0],"split_type":[0,0,0,0,0,0,0,0,0,0,0,0,0,0,0,0,0,0,0,0,0,0,0,0,0,0,0,0,0],"sum_hessian":[1.3659589E3,6.1634735E2,7.4961145E2,5.388896E2,7.745776E1,6.400044E2,1.09607056E2,1.1102231E2,4.2786728E2,4.750013E1,2.9957632E1,4.0713406E1,5.99291E2,6.781397E1,4.1793083E1,3.6906418E1,7.411589E1,2.2774426E2,2.0012302E2,4.1747498E1,5.7526326E0,4.3825917E0,2.557504E1,1.5683633E1,2.5029772E1,5.0163205E2,9.765895E1,2.5832909E1,4.198106E1],"tree_param":{"num_deleted":"0","num_feature":"20","num_nodes":"29","size_leaf_vector":"1"}},{"base_weights":[2.0188538E-2,2.6296505E-1,-6.885466E-2,9.745793E-2,2.5018227E-1,-3.9041215E-1,3.350061E-2,-9.1470055E-2,5.7118076E-1,-7.7517307E-1,4.086087E-1,-1.2200096E-1,3.33249E-1,-3.477767E-2,1.8206118E-1,2.2337519E-1,-2.5378162E-2,-1.9386347E-1,-4.5503844E-2,1.4599226E-1,-1.6434175E-1,4.359692E-2,-8.314976E-2,-1.20006636E-1,1.23113096E-1],"categories":[],"categories_nodes":[],"categories_segments":[],"categories_sizes":[],"default_left":[0,0,0,0,0,0,0,0,0,0,0,0,0,0,0,0,0,0,0,0,0,0,0,0,0],"id":15,"left_children":[1,3,5,7,-1,9,11,13,15,17,19,21,23,-1,-1,-1,-1,-1,-1,-1,-1,-1,-1,-1,-1],"loss_changes":[2.9070976E1,5.8881893E1,3.2402622E1,2.7811325E1,0E0,7.339079E1,3.4878017E1,1.8536509E1,3.3880043E1,1.687429E1,3.140316E1,4.9310585E1,6.7704735E1,0E0,0E0,0E0,0E0,0E0,0E0,0E0,0E0,0E0,0E0,0E0,0E0],"parents":[2147483647,0,0,1,1,2,2,3,3,5,5,6,6,7,7,8,8,9,9,10,10,11,11,12,12],"right_children":[2,4,6,8,-1,10,12,14,16,18,20,22,24,-1,-1,-1,-1,-1,-1,-1,-1,-1,-1,-1,-1],"split_conditions":[3E0,1E0,1.691E2,5.1E2,2.5018227E-1,3E0,2.16E2,2.986E2,1.753E2,1E0,2.027E2,2.118E2,1.76E2,-3.477767E-2,1.8206118E-1,2.2337519E-1,-2.5378162E-2,-1.9386347E-1,-4.5503844E-2,1.4599226E-1,-1.6434175E-1,4.359692E-2,-8.314976E-2,-1.20006636E-1,1.23113096E-1],"split_indices":[4,2,10,1,0,19,7,10,7,6,7,10,13,0,0,0,0,0,0,0,0,0,0,0,0],"split_type":[0,0,0,0,0,0,0,0,0,0,0,0,0,0,0,0,0,0,0,0,0,0,0,0,0],"sum_hessian":[1.3429453E3,3.5985272E2,9.8309265E2,3.0915906E2,5.0693672E1,2.3669176E2,7.464009E2,2.2159175E2,8.756731E1,1.5978072E2,7.691103E1,4.9184015E2,2.5456073E2,2.0551038E2,1.6081371E1,4.8810955E1,3.875635E1,1.1739428E2,4.2386436E1,6.130514E1,1.5605898E1,2.2809709E2,2.6374304E2,5.885904E1,1.9570169E2],"tree_param":{"num_deleted":"0","num_feature":"20","num_nodes":"25","size_leaf_vector":"1"}},{"base_weights":[8.469654E-3,2.590988E-1,-1.0294787E-1,-1.5678391E-1,1.4346367E0,1.4567114E-3,-4.894595E-1,-2.508015E-1,6.90054E-1,1.5074126E0,2.0712571E-1,9.646883E-2,-3.9205012E-1,-6.165336E-1,4.554927E-1,-1.842379E-3,-9.110282E-2,3.4662738E-1,-2.5767682E-2,3.111171E-1,2.1184301E-1,9.004978E-3,2.6946694E-1,-2.1191059E-1,-3.396641E-2,-1.6628881E-1,-5.677694E-2,1.2703834E-1,-1.2898035E-1],"categories":[],"categories_nodes":[],"categories_segments":[],"categories_sizes":[],"default_left":[0,0,0,0,0,0,0,0,0,0,0,0,0,0,0,0,0,0,0,0,0,0,0,0,0,0,0,0,0],"id":16,"left_children":[1,3,5,7,9,11,13,15,17,19,-1,21,23,25,27,-1,-1,-1,-1,-1,-1,-1,-1,-1,-1,-1,-1,-1,-1],"loss_changes":[3.5951946E1,1.9392209E2,3.5968445E1,2.354596E1,1.4483032E0,2.6312288E1,2.3043144E1,1.3099903E1,2.5508327E1,1.9735718E-1,0E0,3.6417564E1,2.012303E1,1.1739662E1,4.966551E0,0E0,0E0,0E0,0E0,0E0,0E0,0E0,0E0,0E0,0E0,0E0,0E0,0E0,0E0],"parents":[2147483647,0,0,1,1,2,2,3,3,4,4,5,5,6,6,7,7,8,8,9,9,11,11,12,12,13,13,14,14],"right_children":[2,4,6,8,10,12,14,16,18,20,-1,22,24,26,28,-1,-1,-1,-1,-1,-1,-1,-1,-1,-1,-1,-1,-1,-1],"split_conditions":[4.15E2,4.09E2,6E0,1.28E2,2.4409412E2,1E0,2.5834192E2,4E0,1.32E2,4E0,2.0712571E-1,1E0,2.5E1,1.1326773E1,1.2E2,-1.842379E-3,-9.110282E-2,3.4662738E-1,-2.5767682E-2,3.111171E-1,2.1184301E-1,9.004978E-3,2.6946694E-1,-2.1191059E-1,-3.396641E-2,-1.6628881E-1,-5.677694E-2,1.2703834E-1,-1.2898035E-1],"split_indices":[1,1,4,8,7,5,7,4,8,19,0,6,6,3,8,0,0,0,0,0,0,0,0,0,0,0,0,0,0],"split_type":[0,0,0,0,0,0,0,0,0,0,0,0,0,0,0,0,0,0,0,0,0,0,0,0,0,0,0,0,0],"sum_hessian":[1.2855155E3,3.952012E2,8.9031433E2,2.925642E2,1.0263697E2,7.017529E2,1.8856137E2,2.6396243E2,2.8601782E1,8.445513E1,1.8181837E1,5.6587695E2,1.3587599E2,1.6651636E2,2.2045017E1,1.2155523E2,1.4240721E2,1.2087989E1,1.6513792E1,7.4027756E1,1.0427381E1,5.4451874E2,2.1358242E1,3.2995476E1,1.02880516E2,1.0024975E2,6.626661E1,1.931376E1,2.7312565E0],"tree_param":{"num_deleted":"0","num_feature":"20","num_nodes":"29","size_leaf_vector":"1"}},{"base_weights":[5.5749547E-3,-6.488045E-2,3.5914558E-1,1.19239956E-1,-2.2762781E-1,-2.789432E-1,1.0718191E0,-2.1857716E-1,4.0082365E-1,-3.3852777E-1,3.8181317E-1,-2.4053784E-1,-7.031112E-2,1.2188704E0,-6.76831E-1,-1.1079307E-1,5.330601E-2,9.288844E-2,-2.0616706E-1,-4.850658E-2,-2.0483707E-1,-7.378958E-2,1.2037187E-1,2.1379717E-1,-4.8709348E-2,2.1477497E-1,3.4533936E-1,-2.0821726E-1,6.1013754E-2],"categories":[],"categories_nodes":[],"categories_segments":[],"categories_sizes":[],"default_left":[0,0,0,0,0,0,0,0,0,0,0,0,0,0,0,0,0,0,0,0,0,0,0,0,0,0,0,0,0],"id":17,"left_children":[1,3,5,7,9,11,13,15,17,19,21,-1,23,25,27,-1,-1,-1,-1,-1,-1,-1,-1,-1,-1,-1,-1,-1,-1],"loss_changes":[3.1439423E1,3.1563477E1,9.566037E1,4.712155E1,3.7909386E1,2.1391262E1,2.6350754E1,3.682448E1,2.5072407E1,3.0914356E1,1.4516734E1,0E0,1.8411163E1,4.914383E0,3.3016648E0,0E0,0E0,0E0,0E0,0E0,0E0,0E0,0E0,0E0,0E0,0E0,0E0,0E0,0E0],"parents":[2147483647,0,0,1,1,2,2,3,3,4,4,5,5,6,6,7,7,8,8,9,9,10,10,12,12,13,13,14,14],"right_children":[2,4,6,8,10,12,14,16,18,20,22,-1,24,26,28,-1,-1,-1,-1,-1,-1,-1,-1,-1,-1,-1,-1,-1,-1],"split_conditions":[2.19E1,1.784E2,2.076E2,2E0,2.645E2,1.605016E2,1E0,1.1621221E1,2.798E2,7E0,1.611E2,-2.4053784E-1,2.219E1,2.459E2,1E0,-1.1079307E-1,5.330601E-2,9.288844E-2,-2.0616706E-1,-4.850658E-2,-2.0483707E-1,-7.378958E-2,1.2037187E-1,2.1379717E-1,-4.8709348E-2,2.1477497E-1,3.4533936E-1,-2.0821726E-1,6.1013754E-2],"split_indices":[12,7,7,19,7,13,5,3,13,4,13,0,12,13,2,0,0,0,0,0,0,0,0,0,0,0,0,0,0],"split_type":[0,0,0,0,0,0,0,0,0,0,0,0,0,0,0,0,0,0,0,0,0,0,0,0,0,0,0,0,0],"sum_hessian":[1.2601364E3,1.0514352E3,2.0870119E2,4.934497E2,5.579854E2,1.1043359E2,9.8267586E1,2.2442722E2,2.690225E2,4.72457E2,8.552845E1,1.9468704E1,9.096489E1,9.092435E1,7.3432426E0,1.3260576E2,9.182147E1,2.5822342E2,1.0799058E1,4.1562192E2,5.6835056E1,1.9232761E1,6.629569E1,1.132361E1,7.964127E1,7.315238E1,1.7771961E1,5.312272E0,2.0309706E0],"tree_param":{"num_deleted":"0","num_feature":"20","num_nodes":"29","size_leaf_vector":"1"}},{"base_weights":[-3.004767E-2,2.2073357E-1,-1.363665E-1,-1.2143204E-1,2.640915E-1,-5.429622E-1,-3.4276728E-2,-3.7145993E-1,1.4471771E-1,-7.395249E-1,-1.0645306E-1,-6.4704114E-1,1.5676988E-2,-9.0167016E-2,2.8314015E-1,-1.2073169E-1,5.6354422E-2,-1.5751368E-1,2.8288502E-1,-9.5837526E-2,1.1908766E-1,-2.1923779E-1,-1.3591564E-2,-1.1037755E-2,8.9983605E-2],"categories":[],"categories_nodes":[],"categories_segments":[],"categories_sizes":[],"default_left":[0,0,0,0,0,0,0,0,0,0,0,0,0,0,0,0,0,0,0,0,0,0,0,0,0],"id":18,"left_children":[1,3,5,7,-1,9,11,13,15,17,19,21,23,-1,-1,-1,-1,-1,-1,-1,-1,-1,-1,-1,-1],"loss_changes":[3.2966293E1,1.3869524E2,3.6016647E1,1.8800224E1,0E0,1.4864422E1,2.1282953E1,2.1283367E1,1.4240006E1,1.3523323E1,1.4737966E1,1.3556541E1,1.9828924E1,0E0,0E0,0E0,0E0,0E0,0E0,0E0,0E0,0E0,0E0,0E0,0E0],"parents":[2147483647,0,0,1,1,2,2,3,3,5,5,6,6,7,7,8,8,9,9,10,10,11,11,12,12],"right_children":[2,4,6,8,-1,10,12,14,16,18,20,22,24,-1,-1,-1,-1,-1,-1,-1,-1,-1,-1,-1,-1],"split_conditions":[4.15E2,4.09E2,2.3236616E0,1.03E2,2.640915E-1,2.338E2,7.4E1,4E1,1.549E2,2.07E2,2.216E2,1.08E2,2.588E2,-9.0167016E-2,2.8314015E-1,-1.2073169E-1,5.6354422E-2,-1.5751368E-1,2.8288502E-1,-9.5837526E-2,1.1908766E-1,-2.1923779E-1,-1.3591564E-2,-1.1037755E-2,8.9983605E-2],"split_indices":[1,1,18,8,0,13,14,6,13,0,7,8,13,0,0,0,0,0,0,0,0,0,0,0,0],"split_type":[0,0,0,0,0,0,0,0,0,0,0,0,0,0,0,0,0,0,0,0,0,0,0,0,0],"sum_hessian":[1.2342878E3,3.6716214E2,8.671257E2,2.807117E2,8.645043E1,1.7315964E2,6.93966E2,1.445356E2,1.3617612E2,1.189166E2,5.424304E1,5.1408123E1,6.425579E2,1.391051E2,5.4304914E0,2.0551504E1,1.1562461E2,1.1694258E2,1.9740254E0,3.5636047E1,1.8606989E1,2.8449324E1,2.2958797E1,5.531584E2,8.939952E1],"tree_param":{"num_deleted":"0","num_feature":"20","num_nodes":"25","size_leaf_vector":"1"}},{"base_weights":[-8.440046E-3,-7.893251E-2,2.4212836E-1,7.418856E-2,-2.4498694E-1,-2.5060612E-1,8.5187435E-1,-4.2038705E-2,6.69278E-1,-3.1287882E-1,4.3778834E-1,-5.070934E-1,1.1521215E-1,1.0092481E0,-6.0631984E-1,-5.446306E-2,5.2913137E-2,2.1218865E-1,4.56636E-2,-8.001778E-2,4.5240205E-2,-1.8531337E-1,1.2725535E-1,-2.76904E-1,-6.0276967E-2,-5.1420648E-2,1.5972923E-1,1.0261959E-1,2.4572027E-1,-2.126529E-1,9.079385E-2],"categories":[],"categories_nodes":[],"categories_segments":[],"categories_sizes":[],"default_left":[0,0,0,0,0,0,0,0,0,0,0,0,0,0,0,0,0,0,0,0,0,0,0,0,0,0,0,0,0,0,0],"id":19,"left_children":[1,3,5,7,9,11,13,15,17,19,21,23,25,27,29,-1,-1,-1,-1,-1,-1,-1,-1,-1,-1,-1,-1,-1,-1,-1,-1],"loss_changes":[2.1424212E1,2.4085E1,8.02276E1,3.4141216E1,2.1196894E1,1.3951113E1,2.797866E1,2.9271E1,1.3686398E1,1.9545162E1,1.1829832E1,1.5326281E1,1.594101E1,1.1124924E1,6.4135633E0,0E0,0E0,0E0,0E0,0E0,0E0,0E0,0E0,0E0,0E0,0E0,0E0,0E0,0E0,0E0,0E0],"parents":[2147483647,0,0,1,1,2,2,3,3,4,4,5,5,6,6,7,7,8,8,9,9,10,10,11,11,12,12,13,13,14,14],"right_children":[2,4,6,8,10,12,14,16,18,20,22,24,26,28,30,-1,-1,-1,-1,-1,-1,-1,-1,-1,-1,-1,-1,-1,-1,-1,-1],"split_conditions":[2.454E2,1.83E2,2.083E2,4E0,4.702E1,1.06E2,1E0,1.1401979E1,1.534E2,1.3654808E1,1.382E2,8.4E1,5.1E2,1.838E2,1E0,-5.446306E-2,5.2913137E-2,2.1218865E-1,4.56636E-2,-8.001778E-2,4.5240205E-2,-1.8531337E-1,1.2725535E-1,-2.76904E-1,-6.0276967E-2,-5.1420648E-2,1.5972923E-1,1.0261959E-1,2.4572027E-1,-2.126529E-1,9.079385E-2],"split_indices":[10,7,7,19,9,14,5,3,7,3,10,8,1,13,2,0,0,0,0,0,0,0,0,0,0,0,0,0,0,0,0],"split_type":[0,0,0,0,0,0,0,0,0,0,0,0,0,0,0,0,0,0,0,0,0,0,0,0,0,0,0,0,0,0,0],"sum_hessian":[1.2108484E3,9.455278E2,2.6532056E2,4.9220868E2,4.5331912E2,1.470659E2,1.18254654E2,4.1256058E2,7.964809E1,4.1281277E2,4.0506363E1,8.622471E1,6.084119E1,1.0701326E2,1.1241392E1,2.356708E2,1.7688977E2,4.1437176E1,3.8210907E1,3.5555103E2,5.7261734E1,4.6786284E0,3.5827736E1,1.5287431E1,7.093728E1,3.9789055E1,2.1052137E1,3.3830944E1,7.318232E1,7.853866E0,3.3875265E0],"tree_param":{"num_deleted":"0","num_feature":"20","num_nodes":"31","size_leaf_vector":"1"}},{"base_weights":[3.209115E-2,9.724205E-2,-2.1278435E-1,-1.1032104E0,1.11259475E-1,-3.153943E-1,3.884126E-1,-2.7789208E-1,-6.8581074E-2,-5.4571176E-1,1.3464698E-1,-4.65834E-1,3.2638893E-1,9.607205E-1,-4.817759E-1,-1.3714142E-1,1.2416402E-1,-1.4890914E-1,8.907155E-2,-2.2262244E-2,4.0339004E-2,-4.1607074E-2,-1.6798313E-1,-6.5107025E-2,1.366195E-1,3.340549E-1,3.812701E-2,4.520996E-2,-1.867005E-1],"categories":[],"categories_nodes":[],"categories_segments":[],"categories_sizes":[],"default_left":[0,0,0,0,0,0,0,0,0,0,0,0,0,0,0,0,0,0,0,0,0,0,0,0,0,0,0,0,0],"id":20,"left_children":[1,3,5,7,9,11,13,-1,15,17,19,21,23,25,27,-1,-1,-1,-1,-1,-1,-1,-1,-1,-1,-1,-1,-1,-1],"loss_changes":[1.8735168E1,1.5725207E1,1.5348724E1,3.101347E0,1.4169578E1,2.0561676E1,1.8607136E1,0E0,1.8683944E0,6.5851316E0,1.4644808E1,1.6379765E1,9.694017E0,1.187344E1,5.0457993E0,0E0,0E0,0E0,0E0,0E0,0E0,0E0,0E0,0E0,0E0,0E0,0E0,0E0,0E0],"parents":[2147483647,0,0,1,1,2,2,3,3,4,4,5,5,6,6,8,8,9,9,10,10,11,11,12,12,13,13,14,14],"right_children":[2,4,6,8,10,12,14,-1,16,18,20,22,24,26,28,-1,-1,-1,-1,-1,-1,-1,-1,-1,-1,-1,-1,-1,-1],"split_conditions":[6E0,4.1E0,1.23E2,2.332E2,6.6E1,2.423E2,2E0,-2.7789208E-1,2.502E2,4E0,1.651E2,1.798E2,1.855E2,1.659E2,9.7E1,-1.3714142E-1,1.2416402E-1,-1.4890914E-1,8.907155E-2,-2.2262244E-2,4.0339004E-2,-4.1607074E-2,-1.6798313E-1,-6.5107025E-2,1.366195E-1,3.340549E-1,3.812701E-2,4.520996E-2,-1.867005E-1],"split_indices":[4,3,8,13,11,7,19,0,10,19,10,7,10,7,0,0,0,0,0,0,0,0,0,0,0,0,0,0,0],"split_type":[0,0,0,0,0,0,0,0,0,0,0,0,0,0,0,0,0,0,0,0,0,0,0,0,0,0,0,0,0],"sum_hessian":[1.1720375E3,9.2621436E2,2.4582317E2,9.793526E0,9.1642084E2,2.1039E2,3.543316E1,7.4025226E0,2.3910034E0,3.0734491E1,8.8568634E2,1.7065996E2,3.973005E1,2.1312355E1,1.4120803E1,1.2644625E0,1.1265409E0,2.580591E1,4.9285808E0,1.8957855E2,6.961078E2,1.0195424E2,6.870571E1,1.408166E1,2.564839E1,1.0483734E1,1.082862E1,5.6956625E0,8.42514E0],"tree_param":{"num_deleted":"0","num_feature":"20","num_nodes":"29","size_leaf_vector":"1"}},{"base_weights":[8.746147E-3,1.3899466E-1,-1.1697371E-1,4.693621E-2,7.657384E-1,-4.9688902E-1,8.547816E-3,-2.186527E-1,1.920668E-1,2.4168983E-1,7.422127E-2,-6.651938E-1,4.1448694E-1,-6.583458E-1,7.85118E-2,-9.070474E-2,4.935121E-2,5.2370764E-2,-9.80157E-2,-9.451251E-2,2.371327E-1,-1.5497257E-1,-2.2764606E-2,2.0411153E-1,-1.6390945E-1,-1.4748679E-1,9.504264E-2,-2.5171636E-2,6.053362E-2],"categories":[],"categories_nodes":[],"categories_segments":[],"categories_sizes":[],"default_left":[0,0,0,0,0,0,0,0,0,0,0,0,0,0,0,0,0,0,0,0,0,0,0,0,0,0,0,0,0],"id":21,"left_children":[1,3,5,7,9,11,13,15,17,-1,19,21,23,25,27,-1,-1,-1,-1,-1,-1,-1,-1,-1,-1,-1,-1,-1,-1],"loss_changes":[1.9339825E1,3.343163E1,2.8665472E1,1.9577913E1,2.263332E1,2.3173004E1,2.1176102E1,1.973986E1,1.5755699E1,0E0,1.8813965E1,7.554409E0,1.8700893E1,4.21389E0,1.8850334E1,0E0,0E0,0E0,0E0,0E0,0E0,0E0,0E0,0E0,0E0,0E0,0E0,0E0,0E0],"parents":[2147483647,0,0,1,1,2,2,3,3,4,4,5,5,6,6,7,7,8,8,10,10,11,11,12,12,13,13,14,14],"right_children":[2,4,6,8,10,12,14,16,18,-1,20,22,24,26,28,-1,-1,-1,-1,-1,-1,-1,-1,-1,-1,-1,-1,-1,-1],"split_conditions":[4E0,1E0,1.4621321E1,8.7E1,3E0,4E0,7.7E1,5.1E2,1.58E2,2.4168983E-1,1.31E1,8E0,1.972E2,2.946E2,1.04E2,-9.070474E-2,4.935121E-2,5.2370764E-2,-9.80157E-2,-9.451251E-2,2.371327E-1,-1.5497257E-1,-2.2764606E-2,2.0411153E-1,-1.6390945E-1,-1.4748679E-1,9.504264E-2,-2.5171636E-2,6.053362E-2],"split_indices":[4,2,12,0,4,19,14,1,0,0,3,4,7,10,11,0,0,0,0,0,0,0,0,0,0,0,0,0,0],"split_type":[0,0,0,0,0,0,0,0,0,0,0,0,0,0,0,0,0,0,0,0,0,0,0,0,0,0,0,0,0],"sum_hessian":[1.1790778E3,5.7905676E2,6.00021E2,5.05833E2,7.322375E1,1.4827606E2,4.5174493E2,1.7856061E2,3.272724E2,4.418737E1,2.9036375E1,1.2539024E2,2.2885828E1,4.2094284E1,4.0965067E2,1.1868907E2,5.9871532E1,2.9745712E2,2.981528E1,1.9847193E1,9.189181E0,1.0424943E2,2.1140814E1,1.5463994E1,7.421834E0,3.967558E1,2.4187052E0,2.145121E2,1.9513857E2],"tree_param":{"num_deleted":"0","num_feature":"20","num_nodes":"29","size_leaf_vector":"1"}},{"base_weights":[1.0426641E-2,-1.1212338E0,2.2277225E-2,-2.649531E-1,-3.359936E-1,-2.9079714E-3,5.849674E-1,-1.8224557E-1,1.17208116E-1,1.726279E-1,-7.690793E-2,7.8233004E-1,-6.8979883E-1,-2.5267601E-2,2.5515443E-1,-3.3032697E-2,4.0534265E-2,-4.677353E-2,1.9360659E-1,-2.1209252E-1,1.18365504E-1],"categories":[],"categories_nodes":[],"categories_segments":[],"categories_sizes":[],"default_left":[0,0,0,0,0,0,0,0,0,0,0,0,0,0,0,0,0,0,0,0,0],"id":22,"left_children":[1,3,5,-1,7,9,11,-1,-1,13,15,17,19,-1,-1,-1,-1,-1,-1,-1,-1],"loss_changes":[1.5295843E1,1.4439993E0,1.5985348E1,0E0,2.535111E0,1.4049257E1,1.2697628E1,0E0,0E0,1.0594408E2,1.8805897E1,8.211544E0,3.9577675E0,0E0,0E0,0E0,0E0,0E0,0E0,0E0,0E0],"parents":[2147483647,0,0,1,1,2,2,4,4,5,5,6,6,9,9,10,10,11,11,12,12],"right_children":[2,4,6,-1,8,10,12,-1,-1,14,16,18,20,-1,-1,-1,-1,-1,-1,-1,-1],"split_conditions":[4.1E0,1.18E2,2.7563345E2,-2.649531E-1,2.563E2,4.15E2,1E0,-1.8224557E-1,1.17208116E-1,4.09E2,1.087E1,1.5329681E2,1.27E2,-2.5267601E-2,2.5515443E-1,-3.3032697E-2,4.0534265E-2,-4.677353E-2,1.9360659E-1,-2.1209252E-1,1.18365504E-1],"split_indices":[3,14,7,0,10,1,5,0,0,1,15,10,0,0,0,0,0,0,0,0,0],"split_type":[0,0,0,0,0,0,0,0,0,0,0,0,0,0,0,0,0,0,0,0,0],"sum_hessian":[1.1376958E3,1.0820163E1,1.1268756E3,8.047257E0,2.7729053E0,1.0795513E3,4.732432E1,1.7148026E0,1.0581027E0,3.197462E2,7.598051E2,4.1314236E1,6.0100837E0,2.5226476E2,6.748143E1,5.778142E2,1.8199094E2,6.3432918E0,3.4970943E1,4.795675E0,1.214409E0],"tree_param":{"num_deleted":"0","num_feature":"20","num_nodes":"21","size_leaf_vector":"1"}},{"base_weights":[-7.1190754E-3,1.9269014E-2,-7.5832355E-1,5.785107E-3,8.748907E-1,-4.9580067E-2,-9.525075E-1,-1.1761518E-2,6.612174E-1,1.0645527E0,-1.3761143E-1,-3.5540494E-1,1.6570728E-1,-1.1065221E0,-2.5916535E-1,1.3821247E-3,-1.3087572E-1,1.63752E-1,-1.1689136E-1,2.4522737E-1,-1.1850847E-1,-1.5049982E-1,1.4962162E-1,-8.09009E-2,-2.4398771E-1,-1.590481E-1,1.057966E-1],"categories":[],"categories_nodes":[],"categories_segments":[],"categories_sizes":[],"default_left":[0,0,0,0,0,0,0,0,0,0,0,0,0,0,0,0,0,0,0,0,0,0,0,0,0,0,0],"id":23,"left_children":[1,3,5,7,9,11,13,15,17,19,-1,21,-1,23,25,-1,-1,-1,-1,-1,-1,-1,-1,-1,-1,-1,-1],"loss_changes":[2.2665394E1,1.2741825E1,5.2929173E0,1.2528779E1,5.811799E0,2.818731E0,2.9597034E0,1.2739337E1,6.0526924E0,4.923197E0,0E0,3.924549E0,0E0,1.4628296E0,3.3071048E0,0E0,0E0,0E0,0E0,0E0,0E0,0E0,0E0,0E0,0E0,0E0,0E0],"parents":[2147483647,0,0,1,1,2,2,3,3,4,4,5,5,6,6,7,7,8,8,9,9,11,11,13,13,14,14],"right_children":[2,4,6,8,10,12,14,16,18,20,-1,22,-1,24,26,-1,-1,-1,-1,-1,-1,-1,-1,-1,-1,-1,-1],"split_conditions":[1.36E2,3.194E2,8.5E1,2.8404028E2,1E0,2.3378763E2,2.432E2,1.37E2,1E0,1.31E2,-1.3761143E-1,1.51E2,1.6570728E-1,8.1E1,2.076E2,1.3821247E-3,-1.3087572E-1,1.63752E-1,-1.1689136E-1,2.4522737E-1,-1.1850847E-1,-1.5049982E-1,1.4962162E-1,-8.09009E-2,-2.4398771E-1,-1.590481E-1,1.057966E-1],"split_indices":[11,10,8,7,5,7,10,8,5,0,0,0,0,14,7,0,0,0,0,0,0,0,0,0,0,0,0],"split_type":[0,0,0,0,0,0,0,0,0,0,0,0,0,0,0,0,0,0,0,0,0,0,0,0,0,0,0],"sum_hessian":[1.1416602E3,1.1038584E3,3.7801666E1,1.0877235E3,1.6134886E1,8.399614E0,2.9402052E1,1.0603197E3,2.7403841E1,1.4673191E1,1.4616938E0,6.671404E0,1.7282102E0,2.357036E1,5.831693E0,1.0313419E3,2.897784E1,2.4631384E1,2.7724578E0,1.3606484E1,1.0667071E0,5.139916E0,1.5314877E0,3.9134824E0,1.9656878E1,3.4655385E0,2.3661547E0],"tree_param":{"num_deleted":"0","num_feature":"20","num_nodes":"27","size_leaf_vector":"1"}},{"base_weights":[-7.610936E-3,-6.3576305E-1,1.4389204E-2,-8.4028023E-1,3.1059897E-1,7.237585E-2,-2.3743887E-1,-9.970857E-1,2.649008E-1,1.9234422E-1,-1.955319E-1,1.5577927E-2,2.763703E-1,-6.296078E-2,-5.559523E-1,-2.1036403E-1,2.2018159E-2,1.601755E-1,-1.6685052E-1,-1.5223759E-2,5.5418994E-2,7.4844204E-2,-6.086452E-2,-1.8018635E-1,1.4369605E-1],"categories":[],"categories_nodes":[],"categories_segments":[],"categories_sizes":[],"default_left":[0,0,0,0,0,0,0,0,0,0,0,0,0,0,0,0,0,0,0,0,0,0,0,0,0],"id":24,"left_children":[1,3,5,7,9,11,13,15,17,-1,-1,19,-1,21,23,-1,-1,-1,-1,-1,-1,-1,-1,-1,-1],"loss_changes":[1.5486814E1,7.6004887E0,1.5832922E1,5.7147236E0,7.2052245E0,6.5512535E1,1.1243514E1,1.7977047E0,3.4358838E0,0E0,0E0,2.0296549E1,0E0,1.4068616E1,3.2169907E1,0E0,0E0,0E0,0E0,0E0,0E0,0E0,0E0,0E0,0E0],"parents":[2147483647,0,0,1,1,2,2,3,3,4,4,5,5,6,6,7,7,8,8,11,11,13,13,14,14],"right_children":[2,4,6,8,10,12,14,16,18,-1,-1,20,-1,22,24,-1,-1,-1,-1,-1,-1,-1,-1,-1,-1],"split_conditions":[6.6E1,4E0,1E0,2.563E2,1.798E2,1E0,2.194E2,3.9E1,1.03E2,1.9234422E-1,-1.955319E-1,2.386E2,2.763703E-1,4.15E2,1.25E2,-2.1036403E-1,2.2018159E-2,1.601755E-1,-1.6685052E-1,-1.5223759E-2,5.5418994E-2,7.4844204E-2,-6.086452E-2,-1.8018635E-1,1.4369605E-1],"split_indices":[11,19,5,7,7,6,13,6,8,0,0,13,0,1,11,0,0,0,0,0,0,0,0,0,0],"split_type":[0,0,0,0,0,0,0,0,0,0,0,0,0,0,0,0,0,0,0,0,0,0,0,0,0],"sum_hessian":[1.1189928E3,3.6920948E1,1.0820719E3,3.0452078E1,6.4688687E0,8.801245E2,2.0194736E2,2.6753975E1,3.6981034E0,4.465401E0,2.0034676E0,8.4450635E2,3.561819E1,1.3124854E2,7.0698814E1,2.5541311E1,1.2126634E0,2.6683252E0,1.0297784E0,6.2579156E2,2.1871475E2,4.649005E1,8.475849E1,5.5868656E1,1.4830159E1],"tree_param":{"num_deleted":"0","num_feature":"20","num_nodes":"25","size_leaf_vector":"1"}},{"base_weights":[-4.048797E-4,1.7591532E-1,-6.643075E-2,4.3287545E-2,2.3008473E-1,-3.082536E-1,2.169671E-2,-1.6151679E-1,2.8031945E-1,-5.0545067E-1,2.4798211E-1,-1.5426347E-1,2.1218109E-1,-1.1505331E-1,5.5113286E-2,1.3573493E-1,-3.180973E-2,-1.3218276E-1,7.092651E-2,1.8888234E-1,-5.652064E-2,1.1060484E-1,-4.523461E-2,-2.029721E-2,1.4446889E-1],"categories":[],"categories_nodes":[],"categories_segments":[],"categories_sizes":[],"default_left":[0,0,0,0,0,0,0,0,0,0,0,0,0,0,0,0,0,0,0,0,0,0,0,0,0],"id":25,"left_children":[1,3,5,7,-1,9,11,13,15,17,19,21,23,-1,-1,-1,-1,-1,-1,-1,-1,-1,-1,-1,-1],"loss_changes":[1.2755256E1,3.8531075E1,1.6994802E1,1.28507805E1,0E0,2.348642E1,1.9646145E1,2.5864897E1,2.1572598E1,2.1302406E1,2.1112635E1,1.5625343E1,4.5104553E1,0E0,0E0,0E0,0E0,0E0,0E0,0E0,0E0,0E0,0E0,0E0,0E0],"parents":[2147483647,0,0,1,1,2,2,3,3,5,5,6,6,7,7,8,8,9,9,10,10,11,11,12,12],"right_children":[2,4,6,8,-1,10,12,14,16,18,20,22,24,-1,-1,-1,-1,-1,-1,-1,-1,-1,-1,-1,-1],"split_conditions":[3E0,1E0,1.763E2,2E0,2.3008473E-1,1E0,2.0675816E2,1.978E2,1.648E2,4E0,9.4E1,1.01E2,2.16E2,-1.1505331E-1,5.5113286E-2,1.3573493E-1,-3.180973E-2,-1.3218276E-1,7.092651E-2,1.8888234E-1,-5.652064E-2,1.1060484E-1,-4.523461E-2,-2.029721E-2,1.4446889E-1],"split_indices":[4,2,10,19,0,6,13,7,7,19,11,7,7,0,0,0,0,0,0,0,0,0,0,0,0],"split_type":[0,0,0,0,0,0,0,0,0,0,0,0,0,0,0,0,0,0,0,0,0,0,0,0,0],"sum_hessian":[1.093649E3,2.9750528E2,7.9614374E2,2.6278537E2,3.4719913E1,2.1197737E2,5.841664E2,1.4114738E2,1.2163797E2,1.5656361E2,5.541375E1,3.0375888E2,2.804075E2,7.234672E1,6.8800674E1,6.351088E1,5.8127094E1,1.3279247E2,2.3771145E1,2.3624731E1,3.1789019E1,2.7415466E1,2.763434E2,1.7414056E2,1.0626693E2],"tree_param":{"num_deleted":"0","num_feature":"20","num_nodes":"25","size_leaf_vector":"1"}},{"base_weights":[7.6258637E-4,-3.964482E-2,2.97808E-1,-7.308615E-2,4.7925383E-1,-6.5780684E-2,1.1563818E0,-5.2284945E-2,-9.032129E-1,-4.9435148E-1,6.68351E-1,2.2614661E-1,-5.919599E-1,5.556444E-1,2.441885E-1,-8.3442576E-2,-2.1738557E-3,-2.2607596E-1,-3.21128E-2,-2.051693E-1,1.0163615E-1,1.597904E-1,-1.328453E-1,3.9761114E-1,-1.40719E-1,-8.804421E-2,1.8877907E-1],"categories":[],"categories_nodes":[],"categories_segments":[],"categories_sizes":[],"default_left":[0,0,0,0,0,0,0,0,0,0,0,0,0,0,0,0,0,0,0,0,0,0,0,0,0,0,0],"id":26,"left_children":[1,3,5,7,9,11,13,15,17,19,21,-1,23,25,-1,-1,-1,-1,-1,-1,-1,-1,-1,-1,-1,-1,-1],"loss_changes":[1.2841269E1,1.637712E1,4.0066776E1,1.5245198E1,1.0852279E1,5.7924335E1,8.017807E-1,1.3069211E1,3.4604454E0,5.7802753E0,8.933407E0,0E0,1.9780437E1,2.5570464E0,0E0,0E0,0E0,0E0,0E0,0E0,0E0,0E0,0E0,0E0,0E0,0E0,0E0],"parents":[2147483647,0,0,1,1,2,2,3,3,4,4,5,5,6,6,7,7,8,8,9,9,10,10,12,12,13,13],"right_children":[2,4,6,8,10,12,14,16,18,20,22,-1,24,26,-1,-1,-1,-1,-1,-1,-1,-1,-1,-1,-1,-1,-1],"split_conditions":[1E0,4.524E1,1.2886936E1,1.38E2,1.555E2,3E0,1.6186125E2,1.437E2,2.352E2,2.8876923E2,1E0,2.2614661E-1,9.09E1,1.31E1,2.441885E-1,-8.3442576E-2,-2.1738557E-3,-2.2607596E-1,-3.21128E-2,-2.051693E-1,1.0163615E-1,1.597904E-1,-1.328453E-1,3.9761114E-1,-1.40719E-1,-8.804421E-2,1.8877907E-1],"split_indices":[2,9,3,11,10,4,10,13,10,7,5,0,13,3,0,0,0,0,0,0,0,0,0,0,0,0,0],"split_type":[0,0,0,0,0,0,0,0,0,0,0,0,0,0,0,0,0,0,0,0,0,0,0,0,0,0,0],"sum_hessian":[1.0678695E3,9.40763E2,1.27106476E2,8.846118E2,5.61512E1,8.994147E1,3.716501E1,8.640242E2,2.0587616E1,8.869663E0,4.7281536E1,2.7120779E1,6.2820686E1,4.538723E0,3.2626286E1,8.7138916E1,7.7688525E2,1.5365432E1,5.222184E0,5.781389E0,3.0882735E0,4.342597E1,3.8555715E0,1.9083353E0,6.091235E1,1.235585E0,3.303138E0],"tree_param":{"num_deleted":"0","num_feature":"20","num_nodes":"27","size_leaf_vector":"1"}},{"base_weights":[-1.982868E-2,-1.0344304E0,-9.45495E-3,-1.153349E0,-3.4984276E-2,3.9920982E-2,-2.125496E-1,-2.4537856E-2,-2.5524673E-1,-1.0455623E-2,2.6236686E-1,-7.2538316E-1,-6.828765E-2,-6.7308205E-3,1.22788906E-1,-1.902487E-1,4.617789E-2,2.264244E-2,-1.1310649E-1],"categories":[],"categories_nodes":[],"categories_segments":[],"categories_sizes":[],"default_left":[0,0,0,0,0,0,0,0,0,0,0,0,0,0,0,0,0,0,0],"id":27,"left_children":[1,3,5,7,-1,9,11,-1,-1,13,-1,15,17,-1,-1,-1,-1,-1,-1],"loss_changes":[1.1090111E1,8.882742E-1,1.0487096E1,1.0072803E0,0E0,5.392737E1,1.5081153E1,0E0,0E0,1.175876E1,0E0,9.895031E0,1.4569039E1,0E0,0E0,0E0,0E0,0E0,0E0],"parents":[2147483647,0,0,1,1,2,2,3,3,5,5,6,6,9,9,11,11,12,12],"right_children":[2,4,6,8,-1,10,12,-1,-1,14,-1,16,18,-1,-1,-1,-1,-1,-1],"split_conditions":[4.1E0,2.718E2,1E0,1.476E2,-3.4984276E-2,1E0,2.5E1,-2.4537856E-2,-2.5524673E-1,2.7563345E2,2.6236686E-1,1.31219635E1,2.251E2,-6.7308205E-3,1.22788906E-1,-1.902487E-1,4.617789E-2,2.264244E-2,-1.1310649E-1],"split_indices":[3,10,5,13,0,6,6,0,0,7,0,3,13,0,0,0,0,0,0],"split_type":[0,0,0,0,0,0,0,0,0,0,0,0,0,0,0,0,0,0,0],"sum_hessian":[1.053601E3,9.664346E0,1.0439366E3,8.189417E0,1.4749292E0,8.404192E2,2.0351746E2,1.0852871E0,7.1041293E0,8.0935486E2,3.10643E1,4.3796833E1,1.5972061E2,7.812741E2,2.808075E1,3.5433193E1,8.363641E0,1.17576294E2,4.2144325E1],"tree_param":{"num_deleted":"0","num_feature":"20","num_nodes":"19","size_leaf_vector":"1"}},{"base_weights":[1.2812158E-2,3.3375014E-2,-4.766227E-1,-2.316425E-2,2.132531E-1,-7.87721E-3,-1.0717583E0,-1.1644992E-1,1.6235177E-1,6.35334E-2,7.4031436E-1,2.6558015E-1,-2.3413399E-1,-1.2197213E0,9.849413E-2,7.555983E-2,-3.8668387E-2,-6.346131E-2,6.5038525E-2,8.4433876E-2,-3.5657853E-2,1.7706253E-1,-1.092778E-1,-1.937316E-1,1.04955114E-1,-2.6193997E-1,-3.050129E-2],"categories":[],"categories_nodes":[],"categories_segments":[],"categories_sizes":[],"default_left":[0,0,0,0,0,0,0,0,0,0,0,0,0,0,0,0,0,0,0,0,0,0,0,0,0,0,0],"id":28,"left_children":[1,3,5,7,9,11,13,15,17,19,21,23,-1,25,-1,-1,-1,-1,-1,-1,-1,-1,-1,-1,-1,-1,-1],"loss_changes":[1.061825E1,1.0296467E1,1.1859089E1,1.3358888E1,1.9057571E1,8.198207E0,4.9371147E0,1.9587873E1,2.0281113E1,1.65218E1,1.045862E1,7.1935167E0,0E0,1.4715672E0,0E0,0E0,0E0,0E0,0E0,0E0,0E0,0E0,0E0,0E0,0E0,0E0,0E0],"parents":[2147483647,0,0,1,1,2,2,3,3,4,4,5,5,6,6,7,7,8,8,9,9,10,10,11,11,13,13],"right_children":[2,4,6,8,10,12,14,16,18,20,22,24,-1,26,-1,-1,-1,-1,-1,-1,-1,-1,-1,-1,-1,-1,-1],"split_conditions":[1.33E2,1.0852907E1,1.04E2,1.18E2,1.16E2,2.379E2,1.45E1,1.137E2,8.9E1,9E1,1.15E2,1.24E2,-2.3413399E-1,2.75E2,9.849413E-2,7.555983E-2,-3.8668387E-2,-6.346131E-2,6.5038525E-2,8.4433876E-2,-3.5657853E-2,1.7706253E-1,-1.092778E-1,-1.937316E-1,1.04955114E-1,-2.6193997E-1,-3.050129E-2],"split_indices":[14,15,11,0,14,13,3,7,8,14,11,7,0,10,0,0,0,0,0,0,0,0,0,0,0,0,0],"split_type":[0,0,0,0,0,0,0,0,0,0,0,0,0,0,0,0,0,0,0,0,0,0,0,0,0,0,0],"sum_hessian":[1.0524733E3,1.0109323E3,4.1540962E1,7.698305E2,2.4110184E2,2.3804838E1,1.7736122E1,5.124967E2,2.5733377E2,1.8863715E2,5.2464684E1,1.9897165E1,3.9076731E0,1.6404623E1,1.3315003E0,6.846994E1,4.440268E2,6.4980606E1,1.9235316E2,7.566948E1,1.12967674E2,4.743158E1,5.0331E0,2.978232E0,1.6918934E1,1.4919521E1,1.4851009E0],"tree_param":{"num_deleted":"0","num_feature":"20","num_nodes":"27","size_leaf_vector":"1"}},{"base_weights":[9.1473805E-4,2.8788924E-2,-4.7079083E-1,1.98339E-1,-4.100492E-2,-6.145139E-1,2.6610467E-1,-5.6988817E-2,2.4237287E-1,-3.3622465E-1,2.2377342E-2,-9.742285E-1,-1.4983907E-1,-3.472711E-1,3.2530174E-1,1.6153535E-1,-2.9618267E-2,-9.589665E-2,8.670094E-2,-4.9420153E-3,1.377267E-1,-2.2672768E-1,5.4613855E-2,2.3986399E-1,-8.340634E-2,-1.8622094E-1,1.6449846E-1],"categories":[],"categories_nodes":[],"categories_segments":[],"categories_sizes":[],"default_left":[0,0,0,0,0,0,0,0,0,0,0,0,0,0,0,0,0,0,0,0,0,0,0,0,0,0,0],"id":29,"left_children":[1,3,5,7,9,11,13,15,-1,17,19,21,23,25,-1,-1,-1,-1,-1,-1,-1,-1,-1,-1,-1,-1,-1],"loss_changes":[1.3646188E1,1.1604068E1,6.296465E0,7.405999E1,1.3012138E1,8.004097E0,9.03336E0,1.8185516E1,0E0,1.3760333E1,1.7996374E1,5.737997E0,8.595669E0,6.1057687E0,0E0,0E0,0E0,0E0,0E0,0E0,0E0,0E0,0E0,0E0,0E0,0E0,0E0],"parents":[2147483647,0,0,1,1,2,2,3,3,4,4,5,5,6,6,7,7,9,9,10,10,11,11,12,12,13,13],"right_children":[2,4,6,8,10,12,14,16,-1,18,20,22,24,26,-1,-1,-1,-1,-1,-1,-1,-1,-1,-1,-1,-1,-1],"split_conditions":[1.63E2,4.15E2,2.643432E2,4.09E2,2.3236616E0,2.9400194E0,1.95E2,1.349E2,2.4237287E-1,4E0,1.47E2,2.518E2,1.13E1,2.223E2,3.2530174E-1,1.6153535E-1,-2.9618267E-2,-9.589665E-2,8.670094E-2,-4.9420153E-3,1.377267E-1,-2.2672768E-1,5.4613855E-2,2.3986399E-1,-8.340634E-2,-1.8622094E-1,1.6449846E-1],"split_indices":[0,1,10,1,18,18,0,10,0,19,0,7,3,7,0,0,0,0,0,0,0,0,0,0,0,0,0],"split_type":[0,0,0,0,0,0,0,0,0,0,0,0,0,0,0,0,0,0,0,0,0,0,0,0,0,0,0],"sum_hessian":[1.0358278E3,9.7892004E2,5.6907703E1,2.8492075E2,6.9399927E2,4.7758945E1,9.148759E0,2.2834077E2,5.6579952E1,1.2190229E2,5.72097E2,2.6301678E1,2.1457268E1,6.818968E0,2.3297908E0,2.1015396E1,2.0732538E2,1.0309229E2,1.881E1,5.3523254E2,3.6864464E1,2.3401937E1,2.8997414E0,2.9703286E0,1.8486938E1,4.6847925E0,2.1341755E0],"tree_param":{"num_deleted":"0","num_feature":"20","num_nodes":"27","size_leaf_vector":"1"}},{"base_weights":[1.0301617E-2,7.149301E-2,-1.8163563E-1,-8.9994526E-1,9.473232E-2,-2.9539028E-1,3.2815972E-1,-1.0944735E0,-1.2662734E-1,-4.7984642E-1,1.2472736E-1,1.0980076E0,-3.472099E-1,7.5430584E-1,-2.7615187E-1,-2.277387E-1,-6.6822E-2,7.6674476E-2,-1.5758288E-1,-1.2559985E-1,1.2384715E-1,3.6723003E-2,-2.5852451E-2,3.704025E-1,-1.8289645E-1,-7.31483E-2,3.2928026E-1,3.5636276E-2,3.2843125E-1,-1.9126162E-1,1.4888388E-1],"categories":[],"categories_nodes":[],"categories_segments":[],"categories_sizes":[],"default_left":[0,0,0,0,0,0,0,0,0,0,0,0,0,0,0,0,0,0,0,0,0,0,0,0,0,0,0,0,0,0,0],"id":30,"left_children":[1,3,5,7,9,11,13,15,17,19,21,23,25,27,29,-1,-1,-1,-1,-1,-1,-1,-1,-1,-1,-1,-1,-1,-1,-1,-1],"loss_changes":[1.2121649E1,1.7749763E1,1.4566403E1,2.6258154E0,1.3245722E1,1.51485195E1,1.20523815E1,1.0884094E-1,1.9290984E0,6.603348E0,1.0911131E1,1.3185749E1,7.91518E0,1.3640973E1,1.4422702E1,0E0,0E0,0E0,0E0,0E0,0E0,0E0,0E0,0E0,0E0,0E0,0E0,0E0,0E0,0E0,0E0],"parents":[2147483647,0,0,1,1,2,2,3,3,4,4,5,5,6,6,7,7,8,8,9,9,10,10,11,11,12,12,13,13,14,14],"right_children":[2,4,6,8,10,12,14,16,18,20,22,24,26,28,30,-1,-1,-1,-1,-1,-1,-1,-1,-1,-1,-1,-1,-1,-1,-1,-1],"split_conditions":[1.14E2,7.82E1,2.553E2,5.1E2,6.7E1,6.37E1,1.04E2,1.21E2,1.12E2,1E0,1E0,1.862E2,1.4E1,2.2E1,2.317E2,-2.277387E-1,-6.6822E-2,7.6674476E-2,-1.5758288E-1,-1.2559985E-1,1.2384715E-1,3.6723003E-2,-2.5852451E-2,3.704025E-1,-1.8289645E-1,-7.31483E-2,3.2928026E-1,3.5636276E-2,3.2843125E-1,-1.9126162E-1,1.4888388E-1],"split_indices":[11,7,13,1,11,7,8,14,14,2,5,10,4,6,10,0,0,0,0,0,0,0,0,0,0,0,0,0,0,0,0],"split_type":[0,0,0,0,0,0,0,0,0,0,0,0,0,0,0,0,0,0,0,0,0,0,0,0,0,0,0,0,0,0,0],"sum_hessian":[1.0299714E3,7.814616E2,2.4850977E2,1.7376413E1,7.640852E2,2.035178E2,4.499196E1,1.3552087E1,3.824326E0,3.7164886E1,7.2692035E2,6.573424E0,1.9694438E2,2.623996E1,1.8751999E1,1.2337045E1,1.2150416E0,2.3964174E0,1.4279087E0,3.3127956E1,4.036929E0,5.903292E2,1.3659111E2,4.8398523E0,1.7335713E0,1.9593958E2,1.0048143E0,1.664181E1,9.59815E0,1.1290471E1,7.4615273E0],"tree_param":{"num_deleted":"0","num_feature":"20","num_nodes":"31","size_leaf_vector":"1"}},{"base_weights":[-5.0658993E-3,-3.3470678E-1,2.5593776E-2,-6.101043E-1,3.5598183E-1,-8.501788E-1,3.9672572E-2,1.8786953E-1,-7.4486065E-1,-2.4000315E-1,5.7641196E-1,-2.2195187E-1,-1.8866196E-1,4.8353493E-2,-2.7964976E-1,2.647948E-1,-1.844719E-2,-1.9211349E-1,1.3093293E-2,-4.0859353E-2,1.9563067E-1,-1.9731939E-1,1.0193145E-1,2.750194E-2,-1.3087608E-2],"categories":[],"categories_nodes":[],"categories_segments":[],"categories_sizes":[],"default_left":[0,0,0,0,0,0,0,0,0,0,0,0,0,0,0,0,0,0,0,0,0,0,0,0,0],"id":31,"left_children":[1,3,5,7,9,11,13,15,17,-1,19,-1,21,23,-1,-1,-1,-1,-1,-1,-1,-1,-1,-1,-1],"loss_changes":[1.0308731E1,1.6726767E1,1.1541759E1,6.8522015E0,9.394595E0,2.3340292E0,1.1545718E1,3.2461345E0,9.432533E0,0E0,7.3824754E0,0E0,3.5000613E0,9.291735E0,0E0,0E0,0E0,0E0,0E0,0E0,0E0,0E0,0E0,0E0,0E0],"parents":[2147483647,0,0,1,1,2,2,3,3,4,4,5,5,6,6,7,7,8,8,10,10,12,12,13,13],"right_children":[2,4,6,8,10,12,14,16,18,-1,20,-1,22,24,-1,-1,-1,-1,-1,-1,-1,-1,-1,-1,-1],"split_conditions":[7.027303E0,1.16E2,1.028E2,1.257E2,7.7E1,3E0,1.5E2,2.4E1,1.36E2,-2.4000315E-1,9.2E1,-2.2195187E-1,1.11E2,1.04E2,-2.7964976E-1,2.647948E-1,-1.844719E-2,-1.9211349E-1,1.3093293E-2,-4.0859353E-2,1.9563067E-1,-1.9731939E-1,1.0193145E-1,2.750194E-2,-1.3087608E-2],"split_indices":[3,8,10,7,14,19,11,0,0,0,0,0,0,8,0,0,0,0,0,0,0,0,0,0,0],"split_type":[0,0,0,0,0,0,0,0,0,0,0,0,0,0,0,0,0,0,0,0,0,0,0,0,0],"sum_hessian":[1.01814386E3,8.579479E1,9.3234906E2,6.1421097E1,2.4373695E1,1.3811578E1,9.185375E2,8.816878E0,5.260422E1,2.4730027E0,2.1900694E1,9.432607E0,4.3789716E0,9.13986E2,4.551481E0,1.0067627E0,7.810116E0,4.1398617E1,1.1205602E1,7.6078134E0,1.4292879E1,1.8510506E0,2.527921E0,5.1234937E2,4.0163663E2],"tree_param":{"num_deleted":"0","num_feature":"20","num_nodes":"25","size_leaf_vector":"1"}},{"base_weights":[1.9359367E-2,3.0474778E-2,-8.042168E-1,-4.594529E-1,5.02915E-2,-1.0680374E0,2.4225602E-1,-7.746989E-1,4.8200068E-1,9.4934285E-2,-1.4448829E-1,-3.476405E-2,-2.3969017E-1,1.7081009E-1,-9.790231E-2,-4.063066E-2,-2.2215883E-1,2.787427E-1,-5.046537E-2,1.2027386E-2,2.4263425E-1,-1.1137537E-1,2.4264222E-2],"categories":[],"categories_nodes":[],"categories_segments":[],"categories_sizes":[],"default_left":[0,0,0,0,0,0,0,0,0,0,0,0,0,0,0,0,0,0,0,0,0,0,0],"id":32,"left_children":[1,3,5,7,9,11,13,15,17,19,21,-1,-1,-1,-1,-1,-1,-1,-1,-1,-1,-1,-1],"loss_changes":[9.281371E0,9.719169E0,3.9864864E0,1.1925525E1,8.368089E0,1.0708256E0,2.0000937E0,5.449379E0,7.301395E0,3.0364807E1,1.9748322E1,0E0,0E0,0E0,0E0,0E0,0E0,0E0,0E0,0E0,0E0,0E0,0E0],"parents":[2147483647,0,0,1,1,2,2,3,3,4,4,5,5,6,6,7,7,8,8,9,9,10,10],"right_children":[2,4,6,8,10,12,14,16,18,20,22,-1,-1,-1,-1,-1,-1,-1,-1,-1,-1,-1,-1],"split_conditions":[3.066E2,1.157E2,2.3555865E2,3E0,1E0,3.7E1,3.131E2,7.9E1,8.5E1,1E0,9.4E1,-3.476405E-2,-2.3969017E-1,1.7081009E-1,-9.790231E-2,-4.063066E-2,-2.2215883E-1,2.787427E-1,-5.046537E-2,1.2027386E-2,2.4263425E-1,-1.1137537E-1,2.4264222E-2],"split_indices":[13,13,7,19,5,0,13,0,14,6,0,0,0,0,0,0,0,0,0,0,0,0,0],"split_type":[0,0,0,0,0,0,0,0,0,0,0,0,0,0,0,0,0,0,0,0,0,0,0],"sum_hessian":[1.0101942E3,9.9769183E2,1.2502369E1,3.792361E1,9.5976825E2,9.968626E0,2.5337431E0,2.8543077E1,9.380534E0,7.812267E2,1.7854155E2,1.5657128E0,8.402913E0,1.2889825E0,1.2447605E0,1.1163493E1,1.7379585E1,3.7842321E0,5.596302E0,7.5867206E2,2.2554617E1,6.954748E1,1.0899408E2],"tree_param":{"num_deleted":"0","num_feature":"20","num_nodes":"23","size_leaf_vector":"1"}},{"base_weights":[-3.580675E-3,-2.1599282E-2,6.499869E-1,-7.667035E-2,1.6922115E-1,-2.564261E-1,1.1871744E0,7.694626E-2,-2.3424247E-1,-2.7741265E-1,6.699142E-1,-6.752705E-1,7.8695846E-1,1.4292203E0,-1.560254E-1,2.8460354E-2,-1.7237367E-1,-7.013219E-2,3.6442038E-2,-9.480279E-2,6.1242368E-2,1.6172345E-1,-1.1153668E-1,-1.8854181E-1,3.765272E-2,1.2889243E-2,2.1860428E-1,3.3487397E-1,-1.3431203E-1],"categories":[],"categories_nodes":[],"categories_segments":[],"categories_sizes":[],"default_left":[0,0,0,0,0,0,0,0,0,0,0,0,0,0,0,0,0,0,0,0,0,0,0,0,0,0,0,0,0],"id":33,"left_children":[1,3,5,7,9,11,13,15,17,19,21,23,25,27,-1,-1,-1,-1,-1,-1,-1,-1,-1,-1,-1,-1,-1,-1,-1],"loss_changes":[1.1971705E1,1.0407316E1,1.3585051E1,1.8614761E1,4.979509E1,5.326298E0,9.35438E0,2.403797E1,1.8463305E1,1.3679661E1,1.8309555E1,2.1098337E0,7.266648E-1,9.241264E0,0E0,0E0,0E0,0E0,0E0,0E0,0E0,0E0,0E0,0E0,0E0,0E0,0E0,0E0,0E0],"parents":[2147483647,0,0,1,1,2,2,3,3,4,4,5,5,6,6,7,7,8,8,9,9,10,10,11,11,12,12,13,13],"right_children":[2,4,6,8,10,12,14,16,18,20,22,24,26,28,-1,-1,-1,-1,-1,-1,-1,-1,-1,-1,-1,-1,-1,-1,-1],"split_conditions":[4E1,2.432E2,2E0,1.812E2,1.984E2,1.3450235E1,2.327E2,2.323E2,2.515692E2,1E0,1E0,1.16E2,1.732E2,2.163E2,-1.560254E-1,2.8460354E-2,-1.7237367E-1,-7.013219E-2,3.6442038E-2,-9.480279E-2,6.1242368E-2,1.6172345E-1,-1.1153668E-1,-1.8854181E-1,3.765272E-2,1.2889243E-2,2.1860428E-1,3.3487397E-1,-1.3431203E-1],"split_indices":[6,10,19,7,7,3,10,10,13,6,5,8,7,7,0,0,0,0,0,0,0,0,0,0,0,0,0,0,0],"split_type":[0,0,0,0,0,0,0,0,0,0,0,0,0,0,0,0,0,0,0,0,0,0,0,0,0,0,0,0,0],"sum_hessian":[1.0143943E3,9.881192E2,2.6275114E1,7.672794E2,2.208398E2,9.971889E0,1.6303225E1,3.8877524E2,3.7850418E2,1.1695671E2,1.0388309E2,7.367265E0,2.6046233E0,1.4760666E1,1.5425587E0,3.6426535E2,2.4509882E1,2.9593436E2,8.2569824E1,8.762644E1,2.933027E1,9.364382E1,1.023927E1,5.5551386E0,1.8121269E0,1.1352481E0,1.4693754E0,1.3399944E1,1.3607223E0],"tree_param":{"num_deleted":"0","num_feature":"20","num_nodes":"29","size_leaf_vector":"1"}},{"base_weights":[-1.4449456E-2,2.012187E-2,-2.4623863E-1,-1.730685E-1,7.204556E-2,-3.4700176E-1,5.8798325E-1,9.9418575E-1,-3.094562E-1,3.1457946E-1,-1.221137E-2,-6.0182538E-2,-7.0907736E-1,-1.6846041E-1,8.247282E-1,3.4236667E-1,2.2779133E-2,-9.791967E-2,1.24484316E-1,9.870755E-2,-6.654243E-2,-2.2810612E-2,7.886036E-2,-1.3814813E-1,8.771997E-2,-1.7988592E-1,3.7921112E-2,1.8634936E-1,1.7229674E-2],"categories":[],"categories_nodes":[],"categories_segments":[],"categories_sizes":[],"default_left":[0,0,0,0,0,0,0,0,0,0,0,0,0,0,0,0,0,0,0,0,0,0,0,0,0,0,0,0,0],"id":34,"left_children":[1,3,5,7,9,11,13,15,17,19,21,23,25,-1,27,-1,-1,-1,-1,-1,-1,-1,-1,-1,-1,-1,-1,-1,-1],"loss_changes":[7.909178E0,8.632161E0,1.0972045E1,2.9333141E1,1.3858273E1,1.1892256E1,5.4950294E0,1.2005148E1,2.7837156E1,2.0417273E1,2.091598E1,2.0815134E1,8.844488E0,0E0,9.2107296E-1,0E0,0E0,0E0,0E0,0E0,0E0,0E0,0E0,0E0,0E0,0E0,0E0,0E0,0E0],"parents":[2147483647,0,0,1,1,2,2,3,3,4,4,5,5,6,6,7,7,8,8,9,9,10,10,11,11,12,12,14,14],"right_children":[2,4,6,8,10,12,14,16,18,20,22,24,26,-1,28,-1,-1,-1,-1,-1,-1,-1,-1,-1,-1,-1,-1,-1,-1],"split_conditions":[7E0,1.41E1,4.44E1,7.4E1,1.626E1,1.7452626E2,1.443E2,9.4E1,4E0,2.271E2,2.3555865E2,1.4403468E2,2.718E2,-1.6846041E-1,5.1E2,3.4236667E-1,2.2779133E-2,-9.791967E-2,1.24484316E-1,9.870755E-2,-6.654243E-2,-2.2810612E-2,7.886036E-2,-1.3814813E-1,8.771997E-2,-1.7988592E-1,3.7921112E-2,1.8634936E-1,1.7229674E-2],"split_indices":[4,12,9,8,12,7,10,11,19,7,7,7,10,0,1,0,0,0,0,0,0,0,0,0,0,0,0,0,0],"split_type":[0,0,0,0,0,0,0,0,0,0,0,0,0,0,0,0,0,0,0,0,0,0,0,0,0,0,0,0,0],"sum_hessian":[9.85393E2,8.5829205E2,1.2710096E2,1.8132188E2,6.7697015E2,1.13924416E2,1.3176543E1,1.8311989E1,1.6300989E2,1.7383934E2,5.0313083E2,6.421921E1,4.970521E1,1.5080249E0,1.1668518E1,9.567532E0,8.744456E0,1.3700076E2,2.6009136E1,1.363734E2,3.7465942E1,4.02911E2,1.00219826E2,2.8192959E1,3.6026245E1,4.1016563E1,8.68865E0,9.963318E0,1.7052008E0],"tree_param":{"num_deleted":"0","num_feature":"20","num_nodes":"29","size_leaf_vector":"1"}},{"base_weights":[1.5026297E-2,-3.5203502E-1,4.3662693E-2,-6.1868334E-1,1.4530872E-1,6.804631E-3,3.2327336E-1,-1.3446642E-2,-8.4484994E-1,-1.5460316E0,6.266237E-1,-6.930201E-1,2.9425522E-2,-2.2651032E-2,1.0576189E0,1.2574802E-1,-1.4109075E-1,-6.5783486E-2,-2.2134529E-1,-9.187604E-2,-3.6471677E-1,-1.1046874E-1,2.0055304E-1,-1.9635323E-1,5.3087126E-2,4.882786E-2,-3.2679085E-3,2.1854055E-1,-9.907249E-2,2.5917813E-1,1.4598888E-1],"categories":[],"categories_nodes":[],"categories_segments":[],"categories_sizes":[],"default_left":[0,0,0,0,0,0,0,0,0,0,0,0,0,0,0,0,0,0,0,0,0,0,0,0,0,0,0,0,0,0,0],"id":35,"left_children":[1,3,5,7,9,11,13,15,17,19,21,23,25,27,29,-1,-1,-1,-1,-1,-1,-1,-1,-1,-1,-1,-1,-1,-1,-1,-1],"loss_changes":[1.04156065E1,9.600445E0,9.466021E0,6.4051228E0,2.2004078E1,1.2886589E1,2.7199493E1,6.561855E0,4.244276E0,9.75749E-1,9.789771E0,7.314641E0,7.7496448E0,3.939935E1,1.73032E0,0E0,0E0,0E0,0E0,0E0,0E0,0E0,0E0,0E0,0E0,0E0,0E0,0E0,0E0,0E0,0E0],"parents":[2147483647,0,0,1,1,2,2,3,3,4,4,5,5,6,6,7,7,8,8,9,9,10,10,11,11,12,12,13,13,14,14],"right_children":[2,4,6,8,10,12,14,16,18,20,22,24,26,28,30,-1,-1,-1,-1,-1,-1,-1,-1,-1,-1,-1,-1,-1,-1,-1,-1],"split_conditions":[7.4E1,2.163E2,1E0,9.253589E0,1.692E2,1.157E2,1.2414937E1,1.8173082E2,1.375E2,1.537E2,1.9280042E2,1.3654808E1,1.293E2,3E0,8.2E1,1.2574802E-1,-1.4109075E-1,-6.5783486E-2,-2.2134529E-1,-9.187604E-2,-3.6471677E-1,-1.1046874E-1,2.0055304E-1,-1.9635323E-1,5.3087126E-2,4.882786E-2,-3.2679085E-3,2.1854055E-1,-9.907249E-2,2.5917813E-1,1.4598888E-1],"split_indices":[14,7,2,3,13,13,3,10,7,13,10,3,7,4,0,0,0,0,0,0,0,0,0,0,0,0,0,0,0,0,0],"split_type":[0,0,0,0,0,0,0,0,0,0,0,0,0,0,0,0,0,0,0,0,0,0,0,0,0,0,0,0,0,0,0],"sum_hessian":[9.884327E2,7.071497E1,9.177177E2,4.5875225E1,2.4839746E1,8.117392E2,1.059785E2,1.2767638E1,3.3107586E1,5.012772E0,1.9826975E1,2.4488853E1,7.8725037E2,7.2700836E1,3.327766E1,6.6696177E0,6.09802E0,1.1906382E1,2.1201202E1,1.5600594E0,3.4527128E0,4.682338E0,1.5144636E1,1.8800625E1,5.688229E0,1.3755508E2,6.4969525E2,2.1250088E1,5.1450752E1,1.7556475E1,1.5721187E1],"tree_param":{"num_deleted":"0","num_feature":"20","num_nodes":"31","size_leaf_vector":"1"}},{"base_weights":[5.746924E-3,-2.854265E-3,1.3131958E0,-2.8237835E-2,3.7540546E-1,3.689191E-1,5.1319027E-1,-6.0536508E-2,2.5158584E-1,-6.6094315E-1,4.8524454E-1,-1.958744E-2,1.5338044E-1,-2.521931E-3,-1.0078336E-1,-9.367081E-3,2.2074209E-1,9.762879E-3,-2.0034908E-1,1.2710218E-1,-8.419044E-2],"categories":[],"categories_nodes":[],"categories_segments":[],"categories_sizes":[],"default_left":[0,0,0,0,0,0,0,0,0,0,0,0,0,0,0,0,0,0,0,0,0],"id":36,"left_children":[1,3,5,7,9,-1,11,13,15,17,19,-1,-1,-1,-1,-1,-1,-1,-1,-1,-1],"loss_changes":[1.0886316E1,9.251065E0,1.7430325E0,8.174666E0,7.2178802E0,0E0,6.8145406E-1,1.7209883E1,2.3857576E1,1.5558021E0,7.806096E0,0E0,0E0,0E0,0E0,0E0,0E0,0E0,0E0,0E0,0E0],"parents":[2147483647,0,0,1,1,2,2,3,3,4,4,6,6,7,7,8,8,9,9,10,10],"right_children":[2,4,6,8,10,-1,12,14,16,18,20,-1,-1,-1,-1,-1,-1,-1,-1,-1,-1],"split_conditions":[3.413E2,2.637E2,9E1,1E0,1.42E2,3.689191E-1,9.1E0,3.78E0,1.2926077E1,3E0,1E0,-1.958744E-2,1.5338044E-1,-2.521931E-3,-1.0078336E-1,-9.367081E-3,2.2074209E-1,9.762879E-3,-2.0034908E-1,1.2710218E-1,-8.419044E-2],"split_indices":[10,7,14,2,10,0,3,18,3,4,5,0,0,0,0,0,0,0,0,0,0],"split_type":[0,0,0,0,0,0,0,0,0,0,0,0,0,0,0,0,0,0,0,0,0],"sum_hessian":[9.6671655E2,9.613898E2,5.3267856E0,9.017988E2,5.9590935E1,2.4161448E0,2.9106407E0,8.091825E2,9.261631E1,5.2297797E0,5.4361156E1,1.033994E0,1.8766468E0,7.311752E2,7.800737E1,6.9294E1,2.332231E1,1.974479E0,3.2553008E0,4.68853E1,7.475855E0],"tree_param":{"num_deleted":"0","num_feature":"20","num_nodes":"21","size_leaf_vector":"1"}},{"base_weights":[2.1132765E-2,-8.840975E-1,3.0550418E-2,-4.3195897E-1,-2.435451E-1,6.4348295E-2,-2.0775467E-1,-7.49272E-1,8.923954E-2,9.353917E-3,2.1321644E-1,-4.725681E-1,1.0958492E-1,-1.7427926E-1,-4.1767787E-2,-3.1717177E-2,4.2891636E-2,9.021585E-2,-7.661307E-2,1.2247334E-3,-1.3450089E-1,1.2715901E-1,-5.250141E-2],"categories":[],"categories_nodes":[],"categories_segments":[],"categories_sizes":[],"default_left":[0,0,0,0,0,0,0,0,0,0,0,0,0,0,0,0,0,0,0,0,0,0,0],"id":37,"left_children":[1,3,5,7,-1,9,11,13,-1,15,17,19,21,-1,-1,-1,-1,-1,-1,-1,-1,-1,-1],"loss_changes":[8.321598E0,9.9021006E-1,7.7768526E0,1.9553603E0,0E0,6.9154654E0,1.0132965E1,1.246922E-1,0E0,2.132299E1,3.2494785E1,6.280801E0,1.1010469E1,0E0,0E0,0E0,0E0,0E0,0E0,0E0,0E0,0E0,0E0],"parents":[2147483647,0,0,1,1,2,2,3,3,5,5,6,6,7,7,9,9,10,10,11,11,12,12],"right_children":[2,4,6,8,-1,10,12,14,-1,16,18,20,22,-1,-1,-1,-1,-1,-1,-1,-1,-1,-1],"split_conditions":[4.1E0,1.04E2,7E0,1.02E2,-2.435451E-1,3E0,1.1401979E1,1.18E2,8.923954E-2,1.954E2,2.005E2,1.7983582E2,9.5E1,-1.7427926E-1,-4.1767787E-2,-3.1717177E-2,4.2891636E-2,9.021585E-2,-7.661307E-2,1.2247334E-3,-1.3450089E-1,1.2715901E-1,-5.250141E-2],"split_indices":[3,8,4,8,0,19,3,11,0,7,7,10,14,0,0,0,0,0,0,0,0,0,0],"split_type":[0,0,0,0,0,0,0,0,0,0,0,0,0,0,0,0,0,0,0,0,0,0,0],"sum_hessian":[9.719558E2,9.05142E0,9.6290436E2,4.817455E0,4.233966E0,8.4394147E2,1.1896293E2,3.6465704E0,1.1708841E0,6.170542E2,2.2688727E2,6.458167E1,5.438125E1,2.4749014E0,1.1716691E0,3.3938876E2,2.7766544E2,1.6236269E2,6.45246E1,1.9312544E1,4.526913E1,2.2232079E1,3.214917E1],"tree_param":{"num_deleted":"0","num_feature":"20","num_nodes":"23","size_leaf_vector":"1"}},{"base_weights":[7.935687E-3,2.0225562E-2,-8.034659E-1,1.2382895E-2,1.5052924E0,-9.9174654E-1,5.256423E-2,-6.1533755E-1,2.6649296E-2,2.7552614E-2,4.5877296E-1,2.6511608E-2,-1.1187195E0,-1.639416E-1,2.4360926E-1,9.352594E-3,-7.7234894E-2,-2.6144782E-1,-7.92995E-2],"categories":[],"categories_nodes":[],"categories_segments":[],"categories_sizes":[],"default_left":[0,0,0,0,0,0,0,0,0,0,0,0,0,0,0,0,0,0,0],"id":38,"left_children":[1,3,5,7,9,11,-1,13,15,-1,-1,-1,17,-1,-1,-1,-1,-1,-1],"loss_changes":[9.554063E0,1.0966256E1,3.1306047E0,8.427363E0,5.018162E0,1.9126854E0,0E0,8.834323E0,7.6513963E0,0E0,0E0,0E0,1.0081244E0,0E0,0E0,0E0,0E0,0E0,0E0],"parents":[2147483647,0,0,1,1,2,2,3,3,4,4,5,5,7,7,8,8,12,12],"right_children":[2,4,6,8,10,12,-1,14,16,-1,-1,-1,18,-1,-1,-1,-1,-1,-1],"split_conditions":[3.066E2,2.1E2,2.403E2,5.3E0,9.7E1,3.4E1,5.256423E-2,5E0,1.63E2,2.7552614E-2,4.5877296E-1,2.6511608E-2,1.988E2,-1.639416E-1,2.4360926E-1,9.352594E-3,-7.7234894E-2,-2.6144782E-1,-7.92995E-2],"split_indices":[13,0,7,3,11,0,0,19,0,0,0,0,7,0,0,0,0,0,0],"split_type":[0,0,0,0,0,0,0,0,0,0,0,0,0,0,0,0,0,0,0],"sum_hessian":[9.55457E2,9.421616E2,1.3295356E1,9.382152E2,3.9463954E0,1.1359456E1,1.9359E0,1.9913E1,9.183022E2,1.8729886E0,2.073407E0,1.1482333E0,1.0211223E1,1.8413332E1,1.4996668E0,8.764847E2,4.181752E1,7.4551916E0,2.7560308E0],"tree_param":{"num_deleted":"0","num_feature":"20","num_nodes":"19","size_leaf_vector":"1"}},{"base_weights":[8.653443E-3,-1.7809187E-1,6.853203E-2,-4.2250404E-1,7.326504E-2,2.3700516E-1,-1.2907248E-2,6.320841E-1,-6.409404E-1,5.614794E-1,-2.4958111E-1,-2.9471755E-1,4.655581E-2,1.7347792E-2,3.9685714E-1,-1.7817973E-1,-7.117607E-2,1.7960948E-1,-6.241544E-2,1.3582692E-1,-7.343125E-2,-8.59457E-2,1.19542755E-1,-2.356693E-2,3.1515684E-2],"categories":[],"categories_nodes":[],"categories_segments":[],"categories_sizes":[],"default_left":[0,0,0,0,0,0,0,0,0,0,0,0,0,0,0,0,0,0,0,0,0,0,0,0,0],"id":39,"left_children":[1,3,5,7,9,-1,11,13,15,17,19,21,23,-1,-1,-1,-1,-1,-1,-1,-1,-1,-1,-1,-1],"loss_changes":[1.0586731E1,1.4153568E1,6.5190475E1,2.7287703E1,1.8137316E1,0E0,1.1225187E1,1.4965202E1,6.6066437E0,1.3733748E1,7.829999E0,1.4319112E1,1.0117588E1,0E0,0E0,0E0,0E0,0E0,0E0,0E0,0E0,0E0,0E0,0E0,0E0],"parents":[2147483647,0,0,1,1,2,2,3,3,4,4,6,6,7,7,8,8,9,9,10,10,11,11,12,12],"right_children":[2,4,6,8,10,-1,12,14,16,18,20,22,24,-1,-1,-1,-1,-1,-1,-1,-1,-1,-1,-1,-1],"split_conditions":[4.09E2,1.07E2,4.15E2,1.105E2,9.3E1,2.3700516E-1,2.3236616E0,1.24E2,1.03E2,1.39E2,1.2624221E2,2.671E2,9.7E1,1.7347792E-2,3.9685714E-1,-1.7817973E-1,-7.117607E-2,1.7960948E-1,-6.241544E-2,1.3582692E-1,-7.343125E-2,-8.59457E-2,1.19542755E-1,-2.356693E-2,3.1515684E-2],"split_indices":[1,0,1,7,14,0,18,11,8,0,10,10,14,0,0,0,0,0,0,0,0,0,0,0,0],"split_type":[0,0,0,0,0,0,0,0,0,0,0,0,0,0,0,0,0,0,0,0,0,0,0,0,0],"sum_hessian":[9.4467017E2,2.2888008E2,7.157901E2,1.156979E2,1.1318218E2,4.774043E1,6.680497E2,1.9527496E1,9.61704E1,4.4758434E1,6.8423744E1,1.1571083E2,5.5233887E2,1.4673711E1,4.853785E0,5.0107643E1,4.606276E1,3.228968E1,1.2468755E1,7.1522884E0,6.1271458E1,1.009562E2,1.4754628E1,2.2263028E2,3.2970856E2],"tree_param":{"num_deleted":"0","num_feature":"20","num_nodes":"25","size_leaf_vector":"1"}},{"base_weights":[8.776807E-3,3.0872189E-2,-3.7323564E-1,1.3504236E-2,6.557435E-1,6.0454495E-2,-9.5289755E-1,-8.01612E-3,4.9821714E-1,-6.473061E-1,8.709459E-1,5.9947634E-1,-5.0121176E-1,-1.1243205E0,-1.5417658E-1,-5.109487E-2,7.146101E-3,1.2320715E-1,-2.0316792E-1,-1.6402046E-1,-1.5377569E-2,2.065659E-1,-2.2560146E-2,-3.7966534E-2,2.4251218E-1,3.138226E-2,-1.9126992E-1,-2.5009447E-1,4.3063812E-2,1.2583107E-1,-1.6571908E-1],"categories":[],"categories_nodes":[],"categories_segments":[],"categories_sizes":[],"default_left":[0,0,0,0,0,0,0,0,0,0,0,0,0,0,0,0,0,0,0,0,0,0,0,0,0,0,0,0,0,0,0],"id":40,"left_children":[1,3,5,7,9,11,13,15,17,19,21,23,25,27,29,-1,-1,-1,-1,-1,-1,-1,-1,-1,-1,-1,-1,-1,-1,-1,-1],"loss_changes":[8.01066E0,9.723796E0,1.3103165E1,9.116285E0,7.3585443E0,9.572001E0,2.8756485E0,9.074479E0,7.253047E0,3.3201694E-1,3.4962482E0,8.012747E0,4.805402E0,3.3407593E0,3.2123094E0,0E0,0E0,0E0,0E0,0E0,0E0,0E0,0E0,0E0,0E0,0E0,0E0,0E0,0E0,0E0,0E0],"parents":[2147483647,0,0,1,1,2,2,3,3,4,4,5,5,6,6,7,7,8,8,9,9,10,10,11,11,12,12,13,13,14,14],"right_children":[2,4,6,8,10,12,14,16,18,20,22,24,26,28,30,-1,-1,-1,-1,-1,-1,-1,-1,-1,-1,-1,-1,-1,-1,-1,-1],"split_conditions":[1.3E2,3.082E2,1.01E2,5E0,1.605016E2,1.985E2,2.432E2,1.5631581E2,2.423E2,9.48899E0,1E0,1.04E2,9E1,1.47E1,2.021E2,-5.109487E-2,7.146101E-3,1.2320715E-1,-2.0316792E-1,-1.6402046E-1,-1.5377569E-2,2.065659E-1,-2.2560146E-2,-3.7966534E-2,2.4251218E-1,3.138226E-2,-1.9126992E-1,-2.5009447E-1,4.3063812E-2,1.2583107E-1,-1.6571908E-1],"split_indices":[14,10,11,19,13,13,10,10,7,3,5,0,8,3,13,0,0,0,0,0,0,0,0,0,0,0,0,0,0,0,0],"split_type":[0,0,0,0,0,0,0,0,0,0,0,0,0,0,0,0,0,0,0,0,0,0,0,0,0,0,0,0,0,0,0],"sum_hessian":[9.4668536E2,8.957925E2,5.0892937E1,8.725617E2,2.3230759E1,2.9624361E1,2.1268578E1,8.364101E2,3.6151596E1,3.0082033E0,2.0222555E1,1.508256E1,1.45418005E1,1.7174833E1,4.093745E0,1.249237E2,7.114864E2,3.4091812E1,2.0597835E0,1.9728491E0,1.035354E0,1.7322157E1,2.9003992E0,6.8954515E0,8.187108E0,6.213054E0,8.328747E0,1.5757531E1,1.4173017E0,1.9249947E0,2.1687505E0],"tree_param":{"num_deleted":"0","num_feature":"20","num_nodes":"31","size_leaf_vector":"1"}},{"base_weights":[-2.2155954E-2,1.2638E-1,-7.777349E-2,4.283891E-2,2.1142207E-1,-4.5109874E-1,-3.561404E-2,3.649259E-1,-1.6976792E-1,9.981168E-2,-7.004363E-1,4.133577E-2,-2.2506726E-1,1.0309645E-1,-1.05506316E-1,-6.7842E-2,1.4612222E-1,-9.831186E-2,1.15463845E-1,2.1620244E-2,-1.7668651E-1,-2.4410333E-2,3.2669578E-2,-1.2659879E-1,-9.125569E-3],"categories":[],"categories_nodes":[],"categories_segments":[],"categories_sizes":[],"default_left":[0,0,0,0,0,0,0,0,0,0,0,0,0,0,0,0,0,0,0,0,0,0,0,0,0],"id":41,"left_children":[1,3,5,7,-1,9,11,13,15,17,19,21,23,-1,-1,-1,-1,-1,-1,-1,-1,-1,-1,-1,-1],"loss_changes":[7.7632475E0,1.9864904E1,1.0741166E1,1.6223894E1,0E0,9.584492E0,8.977956E0,1.292421E1,2.2041866E1,6.625257E0,7.169321E0,8.758498E0,1.2989741E1,0E0,0E0,0E0,0E0,0E0,0E0,0E0,0E0,0E0,0E0,0E0,0E0],"parents":[2147483647,0,0,1,1,2,2,3,3,5,5,6,6,7,7,8,8,9,9,10,10,11,11,12,12],"right_children":[2,4,6,8,-1,10,12,14,16,18,20,22,24,-1,-1,-1,-1,-1,-1,-1,-1,-1,-1,-1,-1],"split_conditions":[3E0,1E0,7.7E1,1.855E2,2.1142207E-1,4.15E2,1.1E2,2.417E2,2.372E2,2.094E2,1.523E2,1.989E2,1.16E2,1.0309645E-1,-1.05506316E-1,-6.7842E-2,1.4612222E-1,-9.831186E-2,1.15463845E-1,2.1620244E-2,-1.7668651E-1,-2.4410333E-2,3.2669578E-2,-1.2659879E-1,-9.125569E-3],"split_indices":[4,2,11,10,0,1,14,7,7,10,13,10,14,0,0,0,0,0,0,0,0,0,0,0,0],"split_type":[0,0,0,0,0,0,0,0,0,0,0,0,0,0,0,0,0,0,0,0,0,0,0,0,0],"sum_hessian":[9.375337E2,2.550657E2,6.82468E2,2.3501694E2,2.0048773E1,6.8266136E1,6.1420184E2,9.316338E1,1.4185355E2,2.1456896E1,4.6809242E1,4.3734726E2,1.768546E2,8.007692E1,1.3086467E1,1.1991083E2,2.1942726E1,9.572442E0,1.1884454E1,8.714589E0,3.8094654E1,1.8697166E2,2.5037561E2,5.3256615E1,1.23597984E2],"tree_param":{"num_deleted":"0","num_feature":"20","num_nodes":"25","size_leaf_vector":"1"}},{"base_weights":[-1.3150692E-2,-7.026514E-2,1.4227764E-1,-5.1066786E-1,-2.7265508E-2,5.338797E-1,5.555611E-2,3.977247E-1,-8.220321E-1,-6.913692E-2,3.0047947E-1,1.9524323E0,3.0402926E-1,-8.99771E-2,3.7736997E-1,2.2134645E-1,-2.857629E-2,-1.9962151E-1,5.3115316E-2,-1.8236072E-1,-1.0774296E-2,1.5096278E-1,-5.3504873E-2,5.352786E-1,-1.3382818E-1,1.221168E-1,-2.1702936E-1,1.2508078E-1,-5.6065984E-2,3.1892797E-1,5.3304482E-2],"categories":[],"categories_nodes":[],"categories_segments":[],"categories_sizes":[],"default_left":[0,0,0,0,0,0,0,0,0,0,0,0,0,0,0,0,0,0,0,0,0,0,0,0,0,0,0,0,0,0,0],"id":42,"left_children":[1,3,5,7,9,11,13,15,17,19,21,23,25,27,29,-1,-1,-1,-1,-1,-1,-1,-1,-1,-1,-1,-1,-1,-1,-1,-1],"loss_changes":[8.145765E0,1.2690487E1,8.3451805E0,1.7189653E1,8.422813E0,1.394662E1,9.541949E0,6.2497196E0,8.830217E0,6.9449644E0,1.8149021E1,1.324238E1,1.7509815E1,1.932164E1,8.131141E0,0E0,0E0,0E0,0E0,0E0,0E0,0E0,0E0,0E0,0E0,0E0,0E0,0E0,0E0,0E0,0E0],"parents":[2147483647,0,0,1,1,2,2,3,3,4,4,5,5,6,6,7,7,8,8,9,9,10,10,11,11,12,12,13,13,14,14],"right_children":[2,4,6,8,10,12,14,16,18,20,22,24,26,28,30,-1,-1,-1,-1,-1,-1,-1,-1,-1,-1,-1,-1,-1,-1,-1,-1],"split_conditions":[5.1E2,5.3E1,1.293E2,1.609E2,1.25E2,4.9E1,2.251E2,9.2E1,2.541E2,6.1E1,1.32E2,1.9939459E2,1.1E2,1.586E2,2.5E1,2.2134645E-1,-2.857629E-2,-1.9962151E-1,5.3115316E-2,-1.8236072E-1,-1.0774296E-2,1.5096278E-1,-5.3504873E-2,5.352786E-1,-1.3382818E-1,1.221168E-1,-2.1702936E-1,1.2508078E-1,-5.6065984E-2,3.1892797E-1,5.3304482E-2],"split_indices":[1,0,7,10,8,0,7,11,7,14,8,10,8,13,0,0,0,0,0,0,0,0,0,0,0,0,0,0,0,0,0],"split_type":[0,0,0,0,0,0,0,0,0,0,0,0,0,0,0,0,0,0,0,0,0,0,0,0,0,0,0,0,0,0,0],"sum_hessian":[9.154788E2,6.6987225E2,2.4560655E2,5.8619057E1,6.1125323E2,4.359438E1,2.0201216E2,1.4892736E1,4.372632E1,5.42708E2,6.854519E1,5.0337234E0,3.8560658E1,1.3960107E2,6.2411095E1,5.9898343E0,8.902903E0,3.7704536E1,6.021782E0,8.611566E0,5.3409644E2,3.790049E1,3.06447E1,3.928059E0,1.1056643E0,3.2048798E1,6.5118585E0,2.8858818E1,1.10742256E2,4.091751E0,5.8319344E1],"tree_param":{"num_deleted":"0","num_feature":"20","num_nodes":"31","size_leaf_vector":"1"}},{"base_weights":[2.3459187E-2,-3.044901E-1,4.641124E-2,-5.656392E-1,1.5166026E-1,-1.7307627E-1,8.4442526E-2,1.9128965E-1,-6.640828E-1,-2.7982575E-1,5.8974135E-1,7.056151E-1,-2.6042777E-1,-5.4656297E-1,9.919731E-2,-3.5873014E-2,-2.0380044E-1,1.7663674E-1,-7.150545E-2,-1.5800856E-1,2.2663406E-1,-9.997787E-2,-2.0376313E-3,5.602332E-2,-1.9636697E-1,1.8196411E-2,2.4047649E-1],"categories":[],"categories_nodes":[],"categories_segments":[],"categories_sizes":[],"default_left":[0,0,0,0,0,0,0,0,0,0,0,0,0,0,0,0,0,0,0,0,0,0,0,0,0,0,0],"id":43,"left_children":[1,3,5,7,9,11,13,-1,15,-1,17,19,21,23,25,-1,-1,-1,-1,-1,-1,-1,-1,-1,-1,-1,-1],"loss_changes":[6.925744E0,7.2561216E0,7.1853313E0,6.4024267E0,1.6248919E1,9.946501E0,6.877245E0,0E0,6.138094E0,0E0,5.431999E0,8.422316E0,6.971284E0,6.3554893E0,6.388246E0,0E0,0E0,0E0,0E0,0E0,0E0,0E0,0E0,0E0,0E0,0E0,0E0],"parents":[2147483647,0,0,1,1,2,2,3,3,4,4,5,5,6,6,8,8,10,10,11,11,12,12,13,13,14,14],"right_children":[2,4,6,8,10,12,14,-1,16,-1,18,20,22,24,26,-1,-1,-1,-1,-1,-1,-1,-1,-1,-1,-1,-1],"split_conditions":[7.3E1,2.163E2,8.1E1,2.5E1,1.732E2,1.239E2,1.14E2,1.9128965E-1,1.383E2,-2.7982575E-1,5E0,2E0,2.9400194E0,9.6E1,1.4E1,-3.5873014E-2,-2.0380044E-1,1.7663674E-1,-7.150545E-2,-1.5800856E-1,2.2663406E-1,-9.997787E-2,-2.0376313E-3,5.602332E-2,-1.9636697E-1,1.8196411E-2,2.4047649E-1],"split_indices":[14,7,11,0,13,10,10,0,7,0,4,19,18,11,4,0,0,0,0,0,0,0,0,0,0,0,0],"split_type":[0,0,0,0,0,0,0,0,0,0,0,0,0,0,0,0,0,0,0,0,0,0,0,0,0,0,0],"sum_hessian":[9.1722925E2,5.9192585E1,8.580367E2,3.7489544E1,2.1703041E1,1.2619348E2,7.318432E2,1.7479464E0,3.5741596E1,4.2972364E0,1.7405806E1,1.077067E1,1.1542281E2,1.5898132E1,7.1594507E2,1.5744504E1,1.9997093E1,1.3340785E1,4.0650196E0,2.2059793E0,8.564691E0,5.8471806E1,5.695101E1,5.6065273E0,1.0291605E1,7.1172736E2,4.217659E0],"tree_param":{"num_deleted":"0","num_feature":"20","num_nodes":"27","size_leaf_vector":"1"}},{"base_weights":[-2.281556E-2,-3.523604E-2,7.244791E-1,-4.3282205E-1,-1.7675772E-2,8.2594305E-1,-1.7894736E-2,-9.7465205E-1,2.433538E-1,-2.4475113E-2,1.0919436E0,5.0742634E-2,1.9364496E-1,-2.1856368E-1,1.1497267E-1,2.3587684E-1,-1.7021243E-1,-1.8945627E-1,-3.3482485E-3,-9.108758E-2,3.467319E-1,1.1688315E-1,-9.708595E-2],"categories":[],"categories_nodes":[],"categories_segments":[],"categories_sizes":[],"default_left":[0,0,0,0,0,0,0,0,0,0,0,0,0,0,0,0,0,0,0,0,0,0,0],"id":44,"left_children":[1,3,5,7,9,11,-1,13,15,17,19,21,-1,-1,-1,-1,-1,-1,-1,-1,-1,-1,-1],"loss_changes":[8.628621E0,6.364437E0,1.3292074E0,1.4365585E1,6.629221E0,1.4523249E0,0E0,4.5846653E0,1.9396887E1,6.1986914E0,6.1036754E0,1.1897194E0,0E0,0E0,0E0,0E0,0E0,0E0,0E0,0E0,0E0,0E0,0E0],"parents":[2147483647,0,0,1,1,2,2,3,3,4,4,5,5,7,7,8,8,9,9,10,10,11,11],"right_children":[2,4,6,8,10,12,-1,14,16,18,20,22,-1,-1,-1,-1,-1,-1,-1,-1,-1,-1,-1],"split_conditions":[2.8876923E2,8.81E1,1E0,1.1E2,1.4E1,1.5036148E2,-1.7894736E-2,4E0,1.875E2,4.1E0,9.84034E0,8.6E1,1.9364496E-1,-2.1856368E-1,1.1497267E-1,2.3587684E-1,-1.7021243E-1,-1.8945627E-1,-3.3482485E-3,-9.108758E-2,3.467319E-1,1.1688315E-1,-9.708595E-2],"split_indices":[7,7,5,11,4,10,0,19,10,3,3,14,0,0,0,0,0,0,0,0,0,0,0],"split_type":[0,0,0,0,0,0,0,0,0,0,0,0,0,0,0,0,0,0,0,0,0,0,0],"sum_hessian":[9.2588214E2,9.116823E2,1.4199846E1,3.7562954E1,8.741193E2,1.261285E1,1.5869961E0,2.0608019E1,1.6954937E1,8.6976764E2,4.351674E0,2.1663666E0,1.0446484E1,1.9421654E1,1.186364E0,9.096909E0,7.858029E0,6.219101E0,8.635486E2,1.360751E0,2.9909232E0,1.04062E0,1.1257466E0],"tree_param":{"num_deleted":"0","num_feature":"20","num_nodes":"23","size_leaf_vector":"1"}},{"base_weights":[2.6402278E-2,9.296895E-3,3.9492878E-1,-2.2778694E-1,3.988824E-2,2.3347251E-1,1.4883953E-1,-5.264678E-1,2.7547804E-1,-5.4384565E-1,6.1505556E-2,7.6177335E-1,-5.387738E-1,9.4093196E-2,-1.3675307E-1,-1.13485694E-1,1.3607049E-1,-4.588497E-3,-1.8586212E-1,-1.3236421E-1,1.5096239E-2,1.8226187E-1,-1.0981341E-1,-5.943276E-3,-1.9958022E-1],"categories":[],"categories_nodes":[],"categories_segments":[],"categories_sizes":[],"default_left":[0,0,0,0,0,0,0,0,0,0,0,0,0,0,0,0,0,0,0,0,0,0,0,0,0],"id":45,"left_children":[1,3,5,7,9,-1,11,13,15,17,19,21,23,-1,-1,-1,-1,-1,-1,-1,-1,-1,-1,-1,-1],"loss_changes":[5.6647544E0,6.2489414E0,7.403508E0,1.4947231E1,9.659967E0,0E0,1.3634561E1,1.006641E1,1.3126632E1,5.469098E0,7.4954925E0,3.8333712E0,3.5634298E0,0E0,0E0,0E0,0E0,0E0,0E0,0E0,0E0,0E0,0E0,0E0,0E0],"parents":[2147483647,0,0,1,1,2,2,3,3,4,4,6,6,7,7,8,8,9,9,10,10,11,11,12,12],"right_children":[2,4,6,8,10,-1,12,14,16,18,20,22,24,-1,-1,-1,-1,-1,-1,-1,-1,-1,-1,-1,-1],"split_conditions":[5E0,5.6E1,1.42E2,5.1E2,8.81E1,2.3347251E-1,1.63E2,1.364E2,9.5E1,1.01E1,5.9E1,2.561E2,2.0274467E2,9.4093196E-2,-1.3675307E-1,-1.13485694E-1,1.3607049E-1,-4.588497E-3,-1.8586212E-1,-1.3236421E-1,1.5096239E-2,1.8226187E-1,-1.0981341E-1,-5.943276E-3,-1.9958022E-1],"split_indices":[19,0,10,1,7,0,7,10,14,3,8,13,13,0,0,0,0,0,0,0,0,0,0,0,0],"split_type":[0,0,0,0,0,0,0,0,0,0,0,0,0,0,0,0,0,0,0,0,0,0,0,0,0],"sum_hessian":[8.982096E2,8.5934766E2,3.886192E1,9.747414E1,7.6187354E2,8.485058E0,3.0376862E1,6.1141434E1,3.6332706E1,2.6344097E1,7.355294E2,1.6003553E1,1.437331E1,8.060974E0,5.308046E1,1.16588E1,2.4673904E1,1.1654352E1,1.4689746E1,1.306336E1,7.2246606E2,1.4638441E1,1.3651115E0,7.3209414E0,7.0523686E0],"tree_param":{"num_deleted":"0","num_feature":"20","num_nodes":"25","size_leaf_vector":"1"}},{"base_weights":[-2.5058465E-2,-6.5892234E-2,1.769924E-1,1.3776985E-1,-1.2148939E-1,2.6977055E-2,2.1893246E-1,-7.469433E-3,9.71658E-1,-5.014695E-1,-8.182759E-2,4.2055663E-1,-2.587657E-1,2.2509506E-2,-2.0976917E-1,2.1597278E-1,-4.6963822E-2,-1.2765083E-1,9.6615694E-2,-2.3003992E-2,9.774157E-2,2.2779455E-2,1.6130395E-1,-2.1237986E-1,1.5652089E-3],"categories":[],"categories_nodes":[],"categories_segments":[],"categories_sizes":[],"default_left":[0,0,0,0,0,0,0,0,0,0,0,0,0,0,0,0,0,0,0,0,0,0,0,0,0],"id":46,"left_children":[1,3,5,7,9,11,-1,13,15,17,19,21,23,-1,-1,-1,-1,-1,-1,-1,-1,-1,-1,-1,-1],"loss_changes":[7.3336406E0,8.384321E0,2.054732E1,1.9257223E1,8.715736E0,1.4672129E1,0E0,1.7160383E1,3.3324547E0,7.6777525E0,1.0042379E1,6.400161E0,1.6204473E1,0E0,0E0,0E0,0E0,0E0,0E0,0E0,0E0,0E0,0E0,0E0,0E0],"parents":[2147483647,0,0,1,1,2,2,3,3,4,4,5,5,7,7,8,8,9,9,10,10,11,11,12,12],"right_children":[2,4,6,8,10,12,-1,14,16,18,20,22,24,-1,-1,-1,-1,-1,-1,-1,-1,-1,-1,-1,-1],"split_conditions":[1.32717285E1,1.383E2,1E0,4E0,1.528E2,3.78E0,2.1893246E-1,7E0,2.695E2,1.44E2,2.8366016E2,1.2E2,1.456E2,2.2509506E-2,-2.0976917E-1,2.1597278E-1,-4.6963822E-2,-1.2765083E-1,9.6615694E-2,-2.3003992E-2,9.774157E-2,2.2779455E-2,1.6130395E-1,-2.1237986E-1,1.5652089E-3],"split_indices":[3,7,2,19,7,18,0,4,10,0,13,0,7,0,0,0,0,0,0,0,0,0,0,0,0],"split_type":[0,0,0,0,0,0,0,0,0,0,0,0,0,0,0,0,0,0,0,0,0,0,0,0,0],"sum_hessian":[8.8645886E2,7.37988E2,1.484709E2,1.5794176E2,5.800462E2,1.2849472E2,1.9976171E1,1.3535744E2,2.258432E1,5.3721687E1,5.263245E2,5.385017E1,7.4644554E1,1.2216952E2,1.3187916E1,2.082181E1,1.7625103E0,4.7477325E1,6.2443604E0,4.981422E2,2.8182312E1,3.0729641E1,2.312053E1,1.7859085E1,5.678547E1],"tree_param":{"num_deleted":"0","num_feature":"20","num_nodes":"25","size_leaf_vector":"1"}},{"base_weights":[-7.3062605E-3,-1.572361E-2,7.0457315E-1,-2.1417504E-3,-4.6985227E-1,8.6645955E-1,-4.7892377E-2,-2.5734383E-1,2.2678137E-2,7.377128E-1,-6.67724E-1,5.546671E-2,1.9210844E-1,1.5741561E-1,-7.135557E-2,-2.948817E-2,1.4672141E-2,-1.2848834E-2,2.0684595E-1,-1.5013194E-1,9.0243675E-2],"categories":[],"categories_nodes":[],"categories_segments":[],"categories_sizes":[],"default_left":[0,0,0,0,0,0,0,0,0,0,0,0,0,0,0,0,0,0,0,0,0],"id":47,"left_children":[1,3,5,7,9,11,-1,13,15,17,19,-1,-1,-1,-1,-1,-1,-1,-1,-1,-1],"loss_changes":[5.356234E0,5.4426823E0,1.8039126E0,5.4402127E0,6.6154437E0,2.3984432E-1,0E0,8.186625E0,6.7604365E0,1.0373111E0,2.4306097E0,0E0,0E0,0E0,0E0,0E0,0E0,0E0,0E0,0E0,0E0],"parents":[2147483647,0,0,1,1,2,2,3,3,4,4,5,5,7,7,8,8,9,9,10,10],"right_children":[2,4,6,8,10,12,-1,14,16,18,20,-1,-1,-1,-1,-1,-1,-1,-1,-1,-1],"split_conditions":[4.986E1,1.36E2,1.18E2,1.9442923E0,7.4E1,5.1E1,-4.7892377E-2,1.239E2,4.09E2,1.1E2,1.54E2,5.546671E-2,1.9210844E-1,1.5741561E-1,-7.135557E-2,-2.948817E-2,1.4672141E-2,-1.2848834E-2,2.0684595E-1,-1.5013194E-1,9.0243675E-2],"split_indices":[9,11,11,18,8,0,0,10,1,0,0,0,0,0,0,0,0,0,0,0,0],"split_type":[0,0,0,0,0,0,0,0,0,0,0,0,0,0,0,0,0,0,0,0,0],"sum_hessian":[8.910282E2,8.8158215E2,9.446023E0,8.569574E2,2.462475E1,8.133446E0,1.3125771E0,7.512647E1,7.8183093E2,3.0828145E0,2.1541935E1,1.6636677E0,6.469778E0,5.929489E0,6.919698E1,1.7902248E2,6.028085E2,1.0436109E0,2.0392034E0,2.0361855E1,1.1800807E0],"tree_param":{"num_deleted":"0","num_feature":"20","num_nodes":"21","size_leaf_vector":"1"}},{"base_weights":[-1.9185882E-2,1.2867108E-1,-7.757556E-2,-5.093491E-2,2.2483733E-1,-2.167677E-1,2.1623272E-2,-9.9807225E-2,8.938875E-1,-5.1882505E-1,-4.691794E-2,-1.8244088E-2,6.642747E-1,-3.5232697E-2,1.1376832E-1,2.3872577E-1,-1.334664E-1,-8.848264E-3,-1.5649435E-1,-3.9285567E-2,1.1283525E-1,1.1321321E-2,-7.359164E-2,-1.3709579E-3,2.911313E-1],"categories":[],"categories_nodes":[],"categories_segments":[],"categories_sizes":[],"default_left":[0,0,0,0,0,0,0,0,0,0,0,0,0,0,0,0,0,0,0,0,0,0,0,0,0],"id":48,"left_children":[1,3,5,7,-1,9,11,13,15,17,19,21,23,-1,-1,-1,-1,-1,-1,-1,-1,-1,-1,-1,-1],"loss_changes":[7.603513E0,4.4647476E1,8.719773E0,9.88888E0,0E0,1.3455086E1,9.477509E0,1.0448526E1,5.72803E0,1.1785006E1,1.5576108E1,9.152048E0,1.1485657E1,0E0,0E0,0E0,0E0,0E0,0E0,0E0,0E0,0E0,0E0,0E0,0E0],"parents":[2147483647,0,0,1,1,2,2,3,3,5,5,6,6,7,7,8,8,9,9,10,10,11,11,12,12],"right_children":[2,4,6,8,-1,10,12,14,16,18,20,22,24,-1,-1,-1,-1,-1,-1,-1,-1,-1,-1,-1,-1],"split_conditions":[4.15E2,4.09E2,9.7E1,4E1,2.2483733E-1,8.4E0,1.5120394E1,1.29E2,2.245E2,1.612E2,2.345E2,6E0,2.027E2,-3.5232697E-2,1.1376832E-1,2.3872577E-1,-1.334664E-1,-8.848264E-3,-1.5649435E-1,-3.9285567E-2,1.1283525E-1,1.1321321E-2,-7.359164E-2,-1.3709579E-3,2.911313E-1],"split_indices":[1,1,14,6,0,15,3,8,13,7,7,4,7,0,0,0,0,0,0,0,0,0,0,0,0],"split_type":[0,0,0,0,0,0,0,0,0,0,0,0,0,0,0,0,0,0,0,0,0,0,0,0,0],"sum_hessian":[8.785611E2,2.4838521E2,6.301759E2,2.1122574E2,3.7159466E1,2.6173447E2,3.684414E2,2.0168753E2,9.538217E0,9.34645E1,1.6826997E2,3.478348E2,2.060658E1,1.8167743E2,2.0010092E1,8.199443E0,1.3387746E0,3.379635E1,5.966815E1,1.3573878E2,3.2531193E1,2.8720197E2,6.063284E1,1.1686883E1,8.919697E0],"tree_param":{"num_deleted":"0","num_feature":"20","num_nodes":"25","size_leaf_vector":"1"}},{"base_weights":[7.674076E-3,1.9543787E-2,-6.493542E-1,1.622015E-1,-3.4852624E-2,3.2503623E-1,-9.183459E-1,1.8901205E-2,2.1994929E-1,-8.661119E-1,-2.055312E-2,2.0002642E-1,-1.3133334E-1,-3.7598512E-1,-2.3817809E-1,1.3465169E-1,-1.0163799E-2,-1.7881385E-4,-1.9922687E-1,1.9468189E-3,-7.9244025E-2,-1.5132459E-1,5.4673683E-2],"categories":[],"categories_nodes":[],"categories_segments":[],"categories_sizes":[],"default_left":[0,0,0,0,0,0,0,0,0,0,0,0,0,0,0,0,0,0,0,0,0,0,0],"id":49,"left_children":[1,3,5,7,9,11,13,15,-1,17,19,-1,-1,21,-1,-1,-1,-1,-1,-1,-1,-1,-1],"loss_changes":[6.7648973E0,6.6126885E0,4.33308E0,3.1579552E1,7.3186803E0,3.3532696E0,1.3740063E0,9.388598E0,0E0,1.1705999E0,6.9192686E0,0E0,0E0,1.5868466E0,0E0,0E0,0E0,0E0,0E0,0E0,0E0,0E0,0E0],"parents":[2147483647,0,0,1,1,2,2,3,3,4,4,5,5,6,6,7,7,9,9,10,10,13,13],"right_children":[2,4,6,8,10,12,14,16,-1,18,20,-1,-1,22,-1,-1,-1,-1,-1,-1,-1,-1,-1],"split_conditions":[3.02E2,4.15E2,9E1,4.09E2,1.065E2,1E2,9.8E1,1.349E2,2.1994929E-1,8.1E1,1.27E2,2.0002642E-1,-1.3133334E-1,1.1401979E1,-2.3817809E-1,1.3465169E-1,-1.0163799E-2,-1.7881385E-4,-1.9922687E-1,1.9468189E-3,-7.9244025E-2,-1.5132459E-1,5.4673683E-2],"split_indices":[13,1,14,1,10,8,11,10,0,8,8,0,0,3,0,0,0,0,0,0,0,0,0],"split_type":[0,0,0,0,0,0,0,0,0,0,0,0,0,0,0,0,0,0,0,0,0,0,0],"sum_hessian":[8.6480786E2,8.5041473E2,1.4393128E1,2.3420825E2,6.162064E2,3.0687168E0,1.1324411E1,2.0404143E2,3.0166822E1,9.41346E0,6.0679297E2,1.807183E0,1.2615336E0,4.5832753E0,6.741136E0,1.881328E1,1.8522815E2,1.3613576E0,8.052102E0,5.624231E2,4.436987E1,2.78536E0,1.7979155E0],"tree_param":{"num_deleted":"0","num_feature":"20","num_nodes":"23","size_leaf_vector":"1"}},{"base_weights":[8.439287E-3,1.9528773E-2,-6.5781784E-1,7.308544E-3,4.6355993E-1,-1.0212604E0,2.9188275E-1,1.5081045E-1,-3.0934835E-2,-4.201709E-2,1.0566038E0,-4.6242893E-2,-1.0884511E0,5.4964215E-1,-6.2316973E-2,1.7761213E-1,8.756123E-3,-5.1281776E-2,3.6414347E-3,-9.7917855E-2,2.0692681E-1,2.3781803E-1,-1.7854536E-2,-5.782756E-2,-2.3382674E-1,-2.885995E-3,1.6042158E-1],"categories":[],"categories_nodes":[],"categories_segments":[],"categories_sizes":[],"default_left":[0,0,0,0,0,0,0,0,0,0,0,0,0,0,0,0,0,0,0,0,0,0,0,0,0,0,0],"id":50,"left_children":[1,3,5,7,9,11,13,15,17,19,21,-1,23,25,-1,-1,-1,-1,-1,-1,-1,-1,-1,-1,-1,-1,-1],"loss_changes":[6.365914E0,4.5912604E0,5.1671104E0,4.532784E0,6.83959E0,3.0170536E-1,8.9954585E-1,1.3674431E1,7.232378E0,6.86528E0,1.6953077E0,0E0,2.6415157E-1,5.3030086E-1,0E0,0E0,0E0,0E0,0E0,0E0,0E0,0E0,0E0,0E0,0E0,0E0,0E0],"parents":[2147483647,0,0,1,1,2,2,3,3,4,4,5,5,6,6,7,7,8,8,9,9,10,10,12,12,13,13],"right_children":[2,4,6,8,10,12,14,16,18,20,22,-1,24,26,-1,-1,-1,-1,-1,-1,-1,-1,-1,-1,-1,-1,-1],"split_conditions":[3.02E2,3.082E2,2.301E2,8.5E1,2.005E2,8.385704E0,1.13E2,1.349E2,1.637E2,2.588E2,1.8E1,-4.6242893E-2,3.7E1,1.0215432E1,-6.2316973E-2,1.7761213E-1,8.756123E-3,-5.1281776E-2,3.6414347E-3,-9.7917855E-2,2.0692681E-1,2.3781803E-1,-1.7854536E-2,-5.782756E-2,-2.3382674E-1,-2.885995E-3,1.6042158E-1],"split_indices":[13,10,7,14,7,3,0,10,10,13,6,0,0,3,0,0,0,0,0,0,0,0,0,0,0,0,0],"split_type":[0,0,0,0,0,0,0,0,0,0,0,0,0,0,0,0,0,0,0,0,0,0,0,0,0,0,0],"sum_hessian":[8.588649E2,8.457584E2,1.3106499E1,8.2409485E2,2.1663544E1,9.424479E0,3.68202E0,1.7278911E2,6.513058E2,1.2195706E1,9.467836E0,1.0867984E0,8.33768E0,2.642515E0,1.039505E0,2.0979485E1,1.5180962E2,1.1579514E2,5.355106E2,8.99972E0,3.1959865E0,8.452809E0,1.015027E0,1.1846929E0,7.152987E0,1.1085588E0,1.5339562E0],"tree_param":{"num_deleted":"0","num_feature":"20","num_nodes":"27","size_leaf_vector":"1"}},{"base_weights":[1.8087637E-2,3.5475247E-2,-4.3619996E-1,-8.041371E-3,2.924664E-1,-9.698188E-2,-1.0091857E0,8.1247E-2,-9.735639E-2,3.969737E-1,-8.687223E-1,-2.2689004E-1,2.5066093E-1,-1.1297257E0,1.029031E-2,-4.570132E-3,7.186415E-2,-7.330098E-2,1.3743071E-3,5.8888346E-2,4.3390352E-1,-2.165666E-1,5.256272E-3,1.285923E-1,-1.0759544E-1,-1.1929711E-1,-2.5863084E-1],"categories":[],"categories_nodes":[],"categories_segments":[],"categories_sizes":[],"default_left":[0,0,0,0,0,0,0,0,0,0,0,0,0,0,0,0,0,0,0,0,0,0,0,0,0,0,0],"id":51,"left_children":[1,3,5,7,9,11,13,15,17,19,21,-1,23,25,-1,-1,-1,-1,-1,-1,-1,-1,-1,-1,-1,-1,-1],"loss_changes":[6.7613516E0,9.211445E0,6.035842E0,5.631649E0,1.4818903E1,7.832631E0,1.5448608E0,1.023201E1,9.905069E0,1.937298E1,1.9757748E0,0E0,5.449118E0,1.424408E-1,0E0,0E0,0E0,0E0,0E0,0E0,0E0,0E0,0E0,0E0,0E0,0E0,0E0],"parents":[2147483647,0,0,1,1,2,2,3,3,4,4,5,5,6,6,7,7,8,8,9,9,10,10,12,12,13,13],"right_children":[2,4,6,8,10,12,14,16,18,20,22,-1,24,26,-1,-1,-1,-1,-1,-1,-1,-1,-1,-1,-1,-1,-1],"split_conditions":[1.33E2,1.19E2,1.05E2,4E0,1.57E2,6.9E1,2.75E2,3E0,1.806E2,1.53E2,2.454E2,-2.2689004E-1,1.1E2,9.5E1,1.029031E-2,-4.570132E-3,7.186415E-2,-7.330098E-2,1.3743071E-3,5.8888346E-2,4.3390352E-1,-2.165666E-1,5.256272E-3,1.285923E-1,-1.0759544E-1,-1.1929711E-1,-2.5863084E-1],"split_indices":[14,14,11,4,0,0,10,19,10,0,10,0,8,8,0,0,0,0,0,0,0,0,0,0,0,0,0],"split_type":[0,0,0,0,